~o
<STREAMINFO> 1 39
<VECSIZE> 39<NULLD><MFCC_D_A_0><DIAGC>
~h "aaa"
<BEGINHMM>
<NUMSTATES> 10
<STATE> 2
<MEAN> 39
 -1.015013e+001 8.609653e-001 -8.874785e-001 -8.131354e+000 -9.013872e+000 1.038926e-001 -3.543992e+000 1.988179e+000 2.786523e+000 1.537586e+000 1.713543e+000 -1.602089e+000 6.553600e+001 4.978209e-002 -3.458289e-002 -1.021620e-001 2.051164e-002 1.949822e-002 -3.989843e-002 -1.462992e-001 -2.525018e-001 1.260905e-001 2.327099e-001 2.407364e-001 4.850806e-002 2.107069e-002 8.799928e-003 -1.458783e-002 -3.004700e-002 -4.137619e-002 8.971423e-004 -5.083996e-002 -9.003604e-002 1.016886e-002 -5.455114e-002 5.803867e-002 7.777905e-002 5.419252e-002 1.453504e-003
<VARIANCE> 39
 2.084019e+000 1.062820e+001 4.339911e+000 6.991271e+000 5.590538e+000 8.369927e+000 2.905989e+001 1.443293e+001 1.273866e+001 1.445267e+001 2.481671e+001 1.369847e+001 6.618111e+000 5.668359e-002 3.712072e-001 3.423459e-001 4.015960e-001 5.748554e-001 7.362723e-001 2.296749e+000 1.107977e+000 1.251672e+000 1.717229e+000 1.580431e+000 1.063323e+000 4.502534e-002 1.044106e-002 4.532398e-002 7.660745e-002 6.752744e-002 9.984135e-002 1.351134e-001 5.077099e-001 2.760618e-001 2.293261e-001 3.865463e-001 3.424881e-001 2.447707e-001 6.414257e-003
<GCONST> 6.427647e+001
<STATE> 3
<MEAN> 39
 -7.956201e+000 4.362986e+000 -3.044528e+000 -9.057641e+000 -7.161189e+000 -4.562880e+000 -1.136872e+001 -2.803737e+000 1.051406e+000 4.422016e+000 7.226432e+000 2.357888e+000 6.558268e+001 -8.477232e-002 8.596475e-002 -2.190477e-002 -4.643786e-002 -3.594736e-002 4.517574e-002 2.371552e-001 2.835824e-001 4.157744e-002 3.431155e-002 -2.819251e-002 3.383762e-002 -8.415510e-002 -1.140198e-002 -9.808180e-003 4.791568e-002 2.646883e-002 2.595790e-002 8.931585e-002 5.808381e-002 5.610059e-002 1.637281e-002 -4.631751e-002 -7.658809e-002 -9.233194e-002 6.940311e-003
<VARIANCE> 39
 1.930369e+000 2.714641e+000 2.552231e+000 5.204461e+000 6.640487e+000 1.032939e+001 1.184388e+001 1.066696e+001 6.550110e+000 1.027529e+001 1.179423e+001 9.421677e+000 6.303813e-001 1.012551e-001 1.730135e-001 3.619913e-001 6.913710e-001 9.155256e-001 1.340887e+000 5.505640e-001 9.266557e-001 7.201487e-001 1.895532e+000 1.122192e+000 1.585396e+000 1.504639e-002 1.904926e-002 3.474842e-002 7.191277e-002 1.504716e-001 2.059070e-001 2.635075e-001 1.163772e-001 1.857116e-001 1.484338e-001 4.501307e-001 2.272054e-001 3.168412e-001 2.730177e-003
<GCONST> 5.440309e+001
<STATE> 4
<MEAN> 39
 -1.071106e+001 4.427782e+000 2.707133e+000 -8.228712e+000 -7.593612e+000 -1.791246e+000 -5.882836e+000 2.656293e+000 1.263879e+000 -5.541338e-001 1.655618e+000 -1.728904e+000 6.541748e+001 -1.845464e-002 -1.158106e-002 4.614683e-002 3.911115e-002 8.549807e-002 -2.478041e-004 8.303940e-002 1.895380e-001 5.163745e-002 -9.208215e-002 -1.100970e-001 -1.336697e-002 -2.079419e-003 -1.834530e-004 -8.222194e-003 -1.970721e-002 -7.846522e-003 1.250116e-002 -1.314078e-002 -3.211277e-002 -3.559432e-002 1.570544e-002 -3.369683e-002 -2.985434e-002 8.003763e-003 -2.231001e-003
<VARIANCE> 39
 9.365569e-001 2.759428e+000 7.220639e+000 3.278997e+000 6.150764e+000 7.332771e+000 1.022313e+001 1.227733e+001 9.085325e+000 1.393933e+001 1.175244e+001 7.359746e+000 7.072253e-001 1.203210e-001 2.552733e-001 7.637514e-001 5.163984e-001 7.594178e-001 9.411712e-001 8.429533e-001 7.257277e-001 1.175943e+000 1.320666e+000 1.230529e+000 7.337238e-001 4.089558e-002 2.584079e-002 5.829724e-002 1.362015e-001 1.214226e-001 1.440177e-001 1.758562e-001 1.893887e-001 1.699746e-001 2.463511e-001 2.854446e-001 2.611816e-001 1.201093e-001 5.245866e-003
<GCONST> 5.620921e+001
<STATE> 5
<MEAN> 39
 -1.046678e+001 -7.541083e-001 -5.543749e+000 -5.799197e+000 -8.484175e+000 -1.047543e+000 -8.588275e-001 6.366064e+000 6.401390e+000 2.330803e+000 9.122869e-001 -2.485683e+000 6.419106e+001 -1.287413e-003 3.132268e-002 -1.626472e-002 4.667857e-002 3.557428e-002 -6.019865e-002 -1.505481e-002 2.302659e-002 3.095112e-002 -4.710416e-002 -2.369192e-002 3.876284e-002 -2.289879e-002 -7.694689e-004 5.088610e-003 4.470898e-003 4.664632e-003 9.598722e-004 -1.156433e-002 -9.888232e-003 -4.013161e-002 -1.496966e-002 3.219621e-003 9.289029e-003 2.310679e-003 8.395517e-004
<VARIANCE> 39
 1.000780e+000 2.348255e+000 4.208322e+000 5.306644e+000 5.568132e+000 1.037980e+001 9.047318e+000 1.141521e+001 1.458439e+001 1.254459e+001 9.926704e+000 1.048797e+001 3.558825e-001 1.195845e-001 2.511501e-001 3.395461e-001 5.152622e-001 6.141217e-001 1.201164e+000 1.169644e+000 1.294969e+000 1.578483e+000 1.452106e+000 1.107574e+000 1.082507e+000 3.176928e-002 2.640265e-002 5.851025e-002 6.662777e-002 1.036217e-001 1.331310e-001 2.695807e-001 2.618819e-001 2.911998e-001 3.216420e-001 2.837922e-001 2.162191e-001 1.984698e-001 6.499004e-003
<GCONST> 5.764956e+001
<STATE> 6
<MEAN> 39
 -1.052684e+001 2.143733e+000 -1.178728e+000 -4.751829e+000 -4.982766e+000 5.220950e-001 -2.670212e+000 4.567865e+000 4.720154e+000 5.561329e-001 9.097953e-001 -1.181052e+000 6.470141e+001 6.180527e-003 -1.912114e-002 4.278687e-002 6.522996e-002 1.788322e-002 1.414088e-001 1.065179e-002 1.288630e-002 -1.715516e-002 -3.922249e-002 -4.295920e-003 -1.106345e-002 7.056719e-003 6.874879e-003 -1.530192e-002 -7.267099e-004 -1.951555e-002 -1.385917e-002 -1.396408e-002 2.628295e-002 2.478792e-002 -1.023911e-002 1.922222e-002 1.231721e-002 -2.416343e-002 1.836361e-002
<VARIANCE> 39
 2.518473e+000 6.517609e+000 1.880124e+001 6.855896e+000 9.371403e+000 1.675824e+001 9.777272e+000 1.643399e+001 1.320083e+001 1.663890e+001 1.586190e+001 1.040579e+001 3.924764e+000 1.987114e-001 7.119423e-001 6.081225e-001 7.354227e-001 7.490052e-001 1.183537e+000 1.216955e+000 2.450327e+000 1.199686e+000 1.773517e+000 1.311319e+000 1.225554e+000 1.185390e-001 3.839559e-002 1.420245e-001 1.397789e-001 1.427409e-001 1.387555e-001 2.398465e-001 2.373603e-001 5.341142e-001 2.043274e-001 3.462312e-001 2.373210e-001 2.390590e-001 2.713624e-002
<GCONST> 7.492559e+001
<STATE> 7
<MEAN> 39
 -1.447142e+001 -9.020454e+000 3.993720e+000 -7.345674e+000 -3.460561e+000 -2.242116e+000 -1.470093e+000 8.230310e-001 2.586589e+000 -1.959074e-001 5.988353e-001 -2.144834e+000 7.578929e+001 -6.760533e-001 -1.974248e+000 6.806289e-001 -2.566902e-001 6.572693e-001 -5.174283e-001 7.836912e-002 -8.850065e-001 -1.068596e-001 6.723059e-001 -2.434258e-001 -3.286414e-001 1.821107e+000 -3.676449e-002 2.314774e-002 3.773793e-002 1.563638e-001 7.241183e-002 9.064367e-002 3.988266e-002 6.215459e-002 1.432927e-001 3.504490e-002 -3.145407e-002 7.240685e-002 -1.060617e-002
<VARIANCE> 39
 1.628182e+001 5.730911e+001 2.500526e+001 1.220998e+001 2.101862e+001 1.489250e+001 1.517158e+001 2.445118e+001 1.491099e+001 2.495290e+001 1.320519e+001 1.636139e+001 5.584782e+001 1.691916e+000 1.845277e+000 3.359153e+000 1.126811e+000 1.463784e+000 8.307822e-001 9.797495e-001 2.592841e+000 1.216530e+000 2.002115e+000 9.719718e-001 2.276335e+000 1.468166e+000 4.148599e-001 6.240682e-001 6.946995e-001 1.513534e-001 2.076970e-001 1.217641e-001 1.749199e-001 6.127120e-001 2.835214e-001 3.033562e-001 1.339158e-001 5.086254e-001 3.969622e-001
<GCONST> 1.013044e+002
<STATE> 8
<MEAN> 39
 -7.530669e+000 -9.965822e+000 4.893762e+000 -4.326853e+000 1.099530e+001 1.103570e+001 2.900274e+000 7.344198e-001 2.231493e+000 5.393555e+000 -1.248350e+000 -5.907420e+000 8.353829e+001 7.549695e-001 6.354121e-001 -2.136199e-001 1.377158e-001 4.665948e-001 5.071668e-001 1.587552e-001 1.833413e-001 -1.194588e-001 -1.911089e-001 3.526375e-002 -1.621624e-001 1.429316e-001 1.047913e-002 7.688220e-003 -4.339691e-002 -6.029096e-002 -9.554569e-002 -4.430994e-002 -6.154255e-003 1.098996e-002 -1.301285e-002 -6.025599e-002 -3.977320e-002 -2.914489e-002 -1.157450e-002
<VARIANCE> 39
 5.470501e+001 2.910384e+001 1.579498e+001 1.093300e+001 4.825756e+001 8.550595e+001 2.296692e+001 1.377679e+001 1.584266e+001 1.926558e+001 1.683782e+001 2.057522e+001 1.279622e+001 1.256827e+000 8.053120e-001 1.146777e+000 1.518431e+000 1.750444e+000 4.818783e+000 1.851247e+000 1.584008e+000 1.447016e+000 9.740341e-001 1.784019e+000 1.331609e+000 2.218962e-001 1.592407e-001 1.596119e-001 2.021636e-001 2.970924e-001 2.623241e-001 4.525879e-001 3.245641e-001 3.653700e-001 2.503718e-001 1.575935e-001 4.120709e-001 2.092070e-001 4.022845e-002
<GCONST> 9.623487e+001
<STATE> 9
<MEAN> 39
 -2.735842e-001 -6.455054e+000 -1.676833e+000 -5.586151e+000 7.595254e+000 4.579401e+000 1.124337e-001 -1.766635e-001 -1.479341e+000 -4.712189e+000 -7.373981e+000 -1.194956e+001 8.744302e+001 -7.821493e-002 -1.297572e-001 6.278981e-002 -1.398432e-001 -3.150407e-001 -2.626683e-001 -1.235781e-001 -2.569416e-001 -6.345893e-002 -1.644786e-001 -1.422142e-001 -2.398846e-001 2.893706e-002 -7.592816e-002 -8.248040e-003 1.016233e-001 2.983250e-003 2.644558e-002 -1.578625e-002 2.063224e-002 -1.423715e-002 -3.525301e-003 2.124426e-002 6.906287e-002 5.776362e-002 -8.141996e-003
<VARIANCE> 39
 4.154852e+000 2.909163e+000 4.181833e+000 9.200332e+000 1.538431e+001 1.206344e+001 9.911268e+000 1.039827e+001 3.282745e+001 2.576171e+001 2.112580e+001 7.522550e+000 5.675279e+000 4.653252e-001 1.788160e-001 9.381409e-001 8.871565e-001 1.089678e+000 1.125232e+000 1.138039e+000 9.711499e-001 1.875238e+000 1.588162e+000 1.882866e+000 7.003090e-001 1.649840e-001 7.993067e-002 3.518245e-002 1.040077e-001 1.934046e-001 2.209917e-001 2.529646e-001 2.647976e-001 2.041476e-001 3.000110e-001 1.967259e-001 2.905197e-001 1.177624e-001 2.202130e-002
<GCONST> 7.282003e+001
<TRANSP> 10
 0.000000e+000 1.000000e+000 0.000000e+000 0.000000e+000 0.000000e+000 0.000000e+000 0.000000e+000 0.000000e+000 0.000000e+000 0.000000e+000
 0.000000e+000 9.555148e-001 4.448513e-002 0.000000e+000 0.000000e+000 0.000000e+000 0.000000e+000 0.000000e+000 0.000000e+000 0.000000e+000
 0.000000e+000 0.000000e+000 9.355117e-001 6.448833e-002 0.000000e+000 0.000000e+000 0.000000e+000 0.000000e+000 0.000000e+000 0.000000e+000
 0.000000e+000 0.000000e+000 0.000000e+000 9.499817e-001 5.001830e-002 0.000000e+000 0.000000e+000 0.000000e+000 0.000000e+000 0.000000e+000
 0.000000e+000 0.000000e+000 0.000000e+000 0.000000e+000 9.793739e-001 2.062606e-002 0.000000e+000 0.000000e+000 0.000000e+000 0.000000e+000
 0.000000e+000 0.000000e+000 0.000000e+000 0.000000e+000 0.000000e+000 9.733610e-001 2.663903e-002 0.000000e+000 0.000000e+000 0.000000e+000
 0.000000e+000 0.000000e+000 0.000000e+000 0.000000e+000 0.000000e+000 0.000000e+000 9.050347e-001 9.496534e-002 0.000000e+000 0.000000e+000
 0.000000e+000 0.000000e+000 0.000000e+000 0.000000e+000 0.000000e+000 0.000000e+000 0.000000e+000 9.554562e-001 4.454380e-002 0.000000e+000
 0.000000e+000 0.000000e+000 0.000000e+000 0.000000e+000 0.000000e+000 0.000000e+000 0.000000e+000 0.000000e+000 9.583680e-001 4.163205e-002
 0.000000e+000 0.000000e+000 0.000000e+000 0.000000e+000 0.000000e+000 0.000000e+000 0.000000e+000 0.000000e+000 0.000000e+000 0.000000e+000
<ENDHMM>
