~o
<STREAMINFO> 1 39
<VECSIZE> 39<NULLD><MFCC_D_A_0><DIAGC>
~h "ccc"
<BEGINHMM>
<NUMSTATES> 10
<STATE> 2
<MEAN> 39
 -1.125626e+001 4.804432e+000 -3.175069e+000 -5.919138e+000 -7.974430e+000 2.141818e-001 -9.419241e-001 2.716215e+000 3.514649e+000 5.674291e-001 -3.981987e-001 -1.150668e+000 6.181992e+001 -4.029300e-002 -5.233629e-002 -1.919239e-002 1.989392e-002 -2.052980e-002 1.176159e-002 1.102667e-001 -1.034024e-002 -2.241979e-002 6.329193e-002 -1.100173e-002 3.180196e-002 -1.987434e-002 -4.200249e-003 -3.282227e-003 -7.299533e-004 -8.003473e-003 3.754227e-003 3.688305e-003 -7.663146e-003 2.109896e-002 2.244732e-002 -7.891929e-003 1.466035e-002 -1.031544e-002 1.319429e-003
<VARIANCE> 39
 1.044901e+000 1.703433e+000 3.784897e+000 5.014075e+000 6.345619e+000 6.403827e+000 8.493795e+000 7.377848e+000 1.200090e+001 7.589236e+000 8.439329e+000 8.188969e+000 2.894814e-001 1.097564e-001 2.403100e-001 3.519851e-001 6.279394e-001 9.417071e-001 9.742269e-001 8.582618e-001 7.959943e-001 1.410623e+000 6.683674e-001 1.112163e+000 8.212203e-001 1.990329e-002 2.456429e-002 5.068792e-002 6.193389e-002 1.267566e-001 2.085565e-001 2.048670e-001 1.751818e-001 1.605620e-001 3.110175e-001 1.222024e-001 2.423045e-001 1.388863e-001 4.022781e-003
<GCONST> 5.043183e+001
<STATE> 3
<MEAN> 39
 -1.132183e+001 4.147607e+000 -4.033424e+000 -5.257028e+000 -5.812291e+000 1.970754e+000 -3.812169e-001 3.690099e+000 5.772941e+000 2.284877e+000 -1.097744e+000 -2.784524e+000 6.186016e+001 9.541493e-002 1.012925e-001 2.200012e-002 1.367879e-002 -3.670865e-003 -1.639734e-002 3.703393e-002 6.154875e-002 -5.849313e-002 -3.612054e-002 1.132920e-001 9.955381e-002 3.086585e-002 2.226081e-002 2.865476e-002 -2.878288e-002 -1.627772e-002 -4.430427e-002 -8.211354e-002 -2.716800e-002 -5.463959e-002 -5.995385e-002 2.452899e-002 6.836247e-002 7.970570e-002 5.303769e-003
<VARIANCE> 39
 9.367569e-001 1.980231e+000 2.081607e+000 6.453239e+000 7.074229e+000 6.707410e+000 6.519945e+000 1.154573e+001 1.214033e+001 1.683303e+001 1.005213e+001 1.087211e+001 1.894239e-001 6.472681e-002 2.373731e-001 1.843691e-001 9.187461e-001 6.832460e-001 1.069781e+000 7.366490e-001 1.419887e+000 1.553562e+000 1.672904e+000 1.139768e+000 1.459869e+000 3.699482e-002 1.453298e-002 6.145098e-002 4.054347e-002 2.257307e-001 1.514780e-001 2.072736e-001 1.353710e-001 2.646877e-001 2.838052e-001 2.897863e-001 2.484214e-001 3.559148e-001 7.427918e-003
<GCONST> 5.504042e+001
<STATE> 4
<MEAN> 39
 -1.082849e+001 5.354692e+000 -2.869425e+000 -7.110094e+000 -9.692899e+000 -8.371586e-001 -1.943292e+000 3.438090e+000 4.562399e+000 1.006492e+000 -6.842688e-001 -2.152000e+000 6.205628e+001 -1.757289e-002 -2.423418e-002 -4.852153e-002 -6.042359e-002 -4.443363e-002 -4.800613e-002 -2.273800e-002 -3.099876e-002 -3.076685e-002 -1.758936e-002 4.099364e-002 -3.926172e-002 -1.042398e-002 -1.466592e-002 -3.606945e-003 8.723531e-003 4.196540e-003 1.743591e-002 1.996772e-002 9.898853e-003 -7.700194e-003 -1.039257e-002 -7.168950e-002 -5.456683e-002 -1.191369e-002 -1.249436e-002
<VARIANCE> 39
 5.131832e-001 1.831187e+000 3.256491e+000 1.146634e+001 1.502586e+001 7.625317e+000 1.359133e+001 8.183735e+000 1.253131e+001 1.574558e+001 1.167701e+001 1.370472e+001 2.865498e-001 6.648809e-002 1.723072e-001 3.988816e-001 5.942205e-001 5.004641e-001 5.292248e-001 1.019001e+000 7.070302e-001 7.805367e-001 9.079385e-001 1.133884e+000 1.780106e+000 2.335842e-002 1.295878e-002 3.003624e-002 7.414061e-002 1.182841e-001 8.466333e-002 1.072852e-001 1.984509e-001 1.040612e-001 1.558579e-001 2.010498e-001 2.486655e-001 3.695590e-001 4.679013e-003
<GCONST> 5.045030e+001
<STATE> 5
<MEAN> 39
 -1.173231e+001 5.135276e+000 -4.196311e+000 -6.451574e+000 -7.878126e+000 6.753919e-001 3.644975e-001 3.714107e+000 2.208188e+000 -1.058035e+000 -1.309225e+000 -2.428061e+000 6.130215e+001 -2.350763e-002 -8.182470e-003 -1.234697e-002 -2.781093e-002 1.313775e-002 5.872425e-002 -6.588892e-003 2.789854e-002 3.423095e-002 7.462384e-005 -2.835762e-002 5.812988e-002 -8.012037e-003 9.877156e-003 -6.137758e-003 1.317052e-002 -5.633663e-003 -1.707754e-002 -1.196245e-003 1.643061e-002 9.803037e-003 6.269952e-003 4.080773e-002 3.860176e-002 4.155615e-004 1.291858e-002
<VARIANCE> 39
 7.451532e-001 3.282960e+000 2.825005e+000 6.392841e+000 8.431770e+000 7.762384e+000 9.853382e+000 1.155449e+001 1.528834e+001 1.218657e+001 9.513147e+000 9.788033e+000 1.716491e-001 9.307034e-002 3.038085e-001 3.245032e-001 3.448941e-001 7.180894e-001 9.750102e-001 1.511864e+000 1.530689e+000 1.248767e+000 1.380929e+000 1.138978e+000 1.049721e+000 2.153852e-002 2.238332e-002 6.665152e-002 7.393357e-002 6.466088e-002 1.562196e-001 1.986310e-001 3.459145e-001 3.570242e-001 2.826725e-001 2.999747e-001 2.162630e-001 2.097006e-001 4.417922e-003
<GCONST> 5.559498e+001
<STATE> 6
<MEAN> 39
 -1.125458e+001 3.849246e+000 -2.258939e+000 -7.450255e+000 -1.093817e+001 2.780615e-001 -9.192743e-001 3.133464e+000 3.270694e+000 -4.553975e-001 -3.710773e-001 -1.001889e+000 6.253250e+001 2.296401e-002 1.060025e-002 8.911354e-002 -1.118972e-002 -1.129114e-002 -1.142672e-001 -6.856273e-002 6.663422e-003 -1.220203e-001 -1.537436e-002 -6.487733e-002 -1.048648e-001 3.186627e-002 -1.506069e-002 -3.192149e-003 5.043146e-003 -3.168182e-003 2.031657e-002 -3.141178e-002 -3.735494e-002 -1.973490e-002 -3.381253e-002 -1.647223e-003 -5.135359e-002 -3.123385e-002 -1.660913e-003
<VARIANCE> 39
 2.645629e+000 2.911687e+000 7.639657e+000 7.388904e+000 1.070103e+001 7.573164e+000 1.328446e+001 1.060382e+001 1.038611e+001 1.388846e+001 9.879903e+000 1.121607e+001 1.025759e+000 2.339698e-001 2.840444e-001 5.427680e-001 1.003690e+000 1.277216e+000 9.085779e-001 1.341772e+000 1.101352e+000 1.752005e+000 1.527337e+000 1.094257e+000 1.110647e+000 1.074601e-001 4.545525e-002 5.375350e-002 1.142995e-001 2.219997e-001 2.331868e-001 1.501408e-001 2.864780e-001 2.199808e-001 3.861206e-001 3.294824e-001 2.138063e-001 1.976505e-001 2.176470e-002
<GCONST> 6.811115e+001
<STATE> 7
<MEAN> 39
 -1.765709e+001 -7.586357e+000 3.340935e+000 -9.837707e+000 5.982872e+000 -5.486632e+000 -4.946839e+000 3.056692e+000 5.003758e+000 3.408557e+000 -2.195770e+000 -5.003665e+000 7.101877e+001 1.152139e-001 -6.244379e-001 5.982271e-001 5.182526e-001 1.337051e+000 8.035355e-001 7.318365e-002 -2.461658e-001 6.127816e-001 2.694009e-001 6.623606e-003 1.769778e-003 6.944271e-001 1.983441e-001 1.671358e-001 6.757271e-002 2.331104e-001 7.787503e-002 2.709709e-001 1.537964e-001 5.932699e-002 7.857934e-002 -1.016777e-001 2.572717e-002 -1.341689e-003 9.015792e-003
<VARIANCE> 39
 1.169348e+001 4.312013e+001 1.150081e+001 5.551352e+000 6.683637e+001 3.328928e+001 9.112460e+000 1.192328e+001 4.238297e+001 1.236246e+001 1.320059e+001 1.264280e+001 2.409596e+001 1.370377e+000 2.135455e+000 1.782246e+000 1.836888e+000 1.936350e+000 2.787066e+000 2.117651e+000 1.349415e+000 4.044719e+000 2.344895e+000 1.389250e+000 1.751414e+000 9.482501e-001 4.070600e-002 1.699358e-001 3.099890e-001 2.151749e-001 2.953851e-001 1.123216e-001 3.891409e-001 3.076765e-001 1.074331e+000 3.783964e-001 2.143695e-001 3.660592e-001 1.324807e-001
<GCONST> 9.841826e+001
<STATE> 8
<MEAN> 39
 -3.689998e+000 -5.841559e+000 2.942868e+000 -2.736921e+000 1.684765e+001 1.387093e+001 -2.779750e+000 -6.142624e-001 1.150836e+001 6.525681e+000 -5.834613e+000 -7.551485e+000 8.305356e+001 -2.030599e-002 -1.596386e-002 3.208000e-002 -1.207483e-001 -1.883239e-001 -8.232901e-002 -6.035811e-002 -2.706070e-001 2.108540e-001 -1.599723e-001 -6.032357e-002 -2.254202e-001 1.964594e-001 -9.060053e-002 -8.266045e-002 -6.368206e-002 -3.937626e-002 -5.828756e-002 -1.040915e-001 -1.038129e-001 -6.198313e-002 7.173666e-003 -2.243011e-002 4.172612e-002 -5.648371e-004 3.765433e-003
<VARIANCE> 39
 6.963739e+000 7.309766e+000 8.531118e+000 1.858912e+001 3.452250e+001 3.097930e+001 1.163751e+001 1.339559e+001 1.825880e+001 2.385294e+001 2.110490e+001 7.017336e+000 1.930358e+001 1.058545e+000 8.116125e-001 7.470970e-001 1.655444e+000 6.812955e-001 2.131206e+000 2.176991e+000 9.587834e-001 1.213248e+000 8.512868e-001 2.158264e+000 7.455563e-001 2.801445e-001 6.363194e-002 1.239114e-001 1.650808e-001 3.905105e-001 1.656250e-001 2.790888e-001 5.920302e-001 1.747662e-001 2.214528e-001 9.493037e-002 3.551600e-001 1.337314e-001 2.887052e-002
<GCONST> 8.375582e+001
<STATE> 9
<MEAN> 39
 -7.138763e+000 8.935184e+000 5.884893e-001 -3.875161e+000 -1.007930e+001 -6.250024e+000 -1.024742e+001 -9.250943e+000 -5.932118e+000 -7.307769e+000 -7.681334e+000 -7.560487e+000 6.463657e+001 -3.202882e-002 -6.093071e-002 -2.976616e-001 -1.586502e-003 2.080126e-001 -1.849840e-001 -3.528225e-001 -5.651456e-001 -1.670498e-001 1.290828e-002 1.735909e-001 1.116515e-001 5.343705e-002 8.246721e-003 1.781837e-002 -1.398144e-002 -5.164475e-002 1.454181e-003 9.999093e-002 9.036618e-002 6.281889e-002 2.760478e-002 4.729289e-002 8.418350e-002 7.924227e-002 -1.131326e-002
<VARIANCE> 39
 2.700084e+000 2.005113e+001 7.203328e+000 3.208655e+000 1.945879e+001 1.599522e+001 8.243469e+000 1.044916e+001 4.295765e+001 1.023993e+001 8.309001e+000 7.704050e+000 1.659834e+001 2.287725e-001 4.291786e-001 5.652496e-001 3.624526e-001 7.937407e-001 1.277589e+000 1.413909e+000 1.527319e+000 6.091104e-001 6.434343e-001 9.765929e-001 9.263052e-001 3.638150e-002 1.259292e-002 4.101714e-002 1.355668e-001 7.161866e-002 1.258423e-001 2.193727e-001 2.091908e-001 2.610647e-001 1.090097e-001 1.115251e-001 2.095877e-001 1.942927e-001 4.272654e-003
<GCONST> 6.282096e+001
<TRANSP> 10
 0.000000e+000 1.000000e+000 0.000000e+000 0.000000e+000 0.000000e+000 0.000000e+000 0.000000e+000 0.000000e+000 0.000000e+000 0.000000e+000
 0.000000e+000 9.694622e-001 3.053784e-002 0.000000e+000 0.000000e+000 0.000000e+000 0.000000e+000 0.000000e+000 0.000000e+000 0.000000e+000
 0.000000e+000 0.000000e+000 9.272930e-001 7.270705e-002 0.000000e+000 0.000000e+000 0.000000e+000 0.000000e+000 0.000000e+000 0.000000e+000
 0.000000e+000 0.000000e+000 0.000000e+000 9.669518e-001 3.304813e-002 0.000000e+000 0.000000e+000 0.000000e+000 0.000000e+000 0.000000e+000
 0.000000e+000 0.000000e+000 0.000000e+000 0.000000e+000 9.723186e-001 2.768145e-002 0.000000e+000 0.000000e+000 0.000000e+000 0.000000e+000
 0.000000e+000 0.000000e+000 0.000000e+000 0.000000e+000 0.000000e+000 9.778345e-001 2.216557e-002 0.000000e+000 0.000000e+000 0.000000e+000
 0.000000e+000 0.000000e+000 0.000000e+000 0.000000e+000 0.000000e+000 0.000000e+000 8.823600e-001 1.176400e-001 0.000000e+000 0.000000e+000
 0.000000e+000 0.000000e+000 0.000000e+000 0.000000e+000 0.000000e+000 0.000000e+000 0.000000e+000 9.555564e-001 4.444360e-002 0.000000e+000
 0.000000e+000 0.000000e+000 0.000000e+000 0.000000e+000 0.000000e+000 0.000000e+000 0.000000e+000 0.000000e+000 9.166651e-001 8.333484e-002
 0.000000e+000 0.000000e+000 0.000000e+000 0.000000e+000 0.000000e+000 0.000000e+000 0.000000e+000 0.000000e+000 0.000000e+000 0.000000e+000
<ENDHMM>
