~o
<STREAMINFO> 1 39
<VECSIZE> 39<NULLD><MFCC_D_A_0><DIAGC>
~h "bbb"
<BEGINHMM>
<NUMSTATES> 10
<STATE> 2
<MEAN> 39
 -5.019422e+000 -2.250066e+000 -5.779005e+000 -4.539819e+000 5.571620e+000 5.297172e+000 -1.098634e+001 -6.271962e+000 2.060125e+000 9.640385e-001 -7.195046e+000 -6.254364e+000 7.070631e+001 3.398789e-002 1.166911e-002 3.822029e-002 4.523882e-001 1.437876e-001 9.355357e-002 -7.606673e-002 -8.175614e-002 2.166669e-001 -2.561813e-001 -3.743830e-001 5.945585e-002 -8.599369e-002 -8.344449e-003 -4.280395e-002 1.506851e-002 4.120473e-002 1.555025e-002 6.019233e-004 1.554459e-002 -4.451140e-002 -7.378129e-002 2.703515e-003 8.375788e-002 2.093428e-002 7.777959e-003
<VARIANCE> 39
 2.203510e+000 4.342032e+000 4.064363e+000 2.709664e+001 1.373517e+001 9.506079e+000 1.511096e+001 1.349499e+001 3.676435e+001 2.879782e+001 1.806432e+001 9.116070e+000 3.943227e+000 6.567785e-002 2.836261e-001 3.534053e-001 7.120118e-001 6.710334e-001 8.951707e-001 2.567519e+000 1.522957e+000 1.993174e+000 2.837152e+000 1.847173e+000 9.761583e-001 7.972908e-002 1.354843e-002 5.077350e-002 5.529054e-002 8.231540e-002 1.234062e-001 1.693928e-001 6.588816e-001 2.058828e-001 3.143230e-001 4.918521e-001 3.138634e-001 1.930179e-001 1.504109e-002
<GCONST> 7.014432e+001
<STATE> 3
<MEAN> 39
 -4.291875e+000 -2.396755e+000 -3.311343e+000 -2.307665e+000 4.272789e+000 5.490705e+000 -1.151429e+001 -5.856643e+000 1.325331e+000 -3.561603e+000 -6.362961e+000 -7.206920e+000 7.069443e+001 1.314025e-001 8.813438e-002 6.005659e-002 -3.727491e-001 -4.158950e-001 -1.060033e-002 2.144300e-001 4.679622e-001 -1.429020e-001 -1.212482e-001 3.842385e-001 2.121980e-002 1.244227e-001 3.125405e-002 6.130829e-002 8.636694e-003 -3.287205e-002 1.813078e-002 -3.367179e-002 -8.390211e-002 -5.142433e-002 9.313259e-002 8.868963e-002 -1.514730e-003 4.620223e-002 9.968558e-003
<VARIANCE> 39
 4.608770e+000 4.642315e+000 4.279260e+000 1.915639e+001 2.314050e+001 7.587524e+000 1.067780e+001 2.927860e+001 2.495406e+001 2.362119e+001 1.589844e+001 6.158731e+000 4.727919e+000 1.321089e-001 1.799926e-001 5.466167e-001 1.043795e+000 7.510405e-001 6.741762e-001 8.468168e-001 3.003708e+000 2.973799e+000 1.954124e+000 2.188312e+000 8.911615e-001 3.676315e-002 2.492792e-002 4.874362e-002 1.188250e-001 2.215847e-001 1.873676e-001 1.447164e-001 1.880166e-001 7.019577e-001 5.292256e-001 2.198850e-001 3.722448e-001 1.639379e-001 7.295581e-003
<GCONST> 7.180329e+001
<STATE> 4
<MEAN> 39
 -8.201686e-001 3.527086e+000 -1.096987e+000 -5.029749e+000 -2.590971e+000 -1.309952e+000 -1.417550e+001 -1.683405e+000 6.753571e+000 1.789460e+000 -2.258797e-001 -2.210808e+000 7.130250e+001 4.815956e-002 2.955650e-001 1.224806e-001 -1.245738e-002 -1.090071e-001 -2.489050e-001 1.492384e-002 -2.324249e-001 -6.042744e-002 2.181419e-001 -8.110762e-002 4.249328e-002 -7.639127e-002 -3.594327e-003 -3.871908e-002 -1.384882e-002 2.428650e-002 4.585901e-002 7.817011e-002 4.597814e-002 1.610285e-002 1.787975e-002 -5.481061e-002 -3.777195e-003 -5.916899e-002 -4.435856e-003
<VARIANCE> 39
 6.415020e+000 8.936649e+000 3.584816e+000 7.627055e+000 9.319615e+000 7.220672e+000 2.096428e+001 1.801776e+001 9.592489e+000 1.349599e+001 8.975533e+000 5.864141e+000 4.554467e+000 1.394149e-001 5.061599e-001 4.758089e-001 7.716513e-001 6.052862e-001 3.876437e-001 1.400741e+000 1.447586e+000 1.015762e+000 1.910775e+000 6.285143e-001 6.228474e-001 2.337783e-002 2.276529e-002 7.778691e-002 1.080098e-001 1.264735e-001 1.320862e-001 8.074974e-002 2.659648e-001 3.734347e-001 2.340550e-001 3.799180e-001 8.052186e-002 5.100177e-002 3.872673e-003
<GCONST> 6.014527e+001
<STATE> 5
<MEAN> 39
 -1.130572e+001 4.902573e+000 -1.639305e+000 -5.803940e+000 -8.210844e+000 1.113719e+000 7.507963e-002 3.212354e+000 2.503513e+000 -1.119399e-001 -1.048771e+000 -1.820332e+000 6.206110e+001 2.181739e-002 -4.311273e-002 -1.034613e-002 4.234374e-002 5.545436e-002 5.541553e-002 -3.022834e-002 -1.000930e-001 7.698842e-003 -6.734409e-003 1.392783e-002 -1.703503e-002 2.433373e-002 1.939789e-003 3.732984e-003 8.391431e-003 -4.156107e-003 -2.298203e-003 8.243089e-003 -6.083814e-003 6.425524e-003 1.566218e-002 -2.461570e-003 -5.146163e-003 -1.644039e-002 3.869285e-003
<VARIANCE> 39
 2.120440e+000 2.604844e+000 4.134861e+000 4.259658e+000 8.459702e+000 8.718172e+000 8.505662e+000 9.944235e+000 8.150392e+000 1.322390e+001 1.158065e+001 1.112649e+001 1.350610e+000 9.832987e-002 1.821072e-001 3.265474e-001 4.708500e-001 9.163390e-001 1.002242e+000 7.811915e-001 9.855013e-001 8.367350e-001 1.516747e+000 1.316164e+000 1.097257e+000 3.041836e-002 2.042248e-002 3.634309e-002 6.133745e-002 8.711608e-002 1.803224e-001 1.959451e-001 1.679381e-001 1.982008e-001 1.823406e-001 3.025886e-001 2.823812e-001 2.107790e-001 5.277429e-003
<GCONST> 5.555777e+001
<STATE> 6
<MEAN> 39
 -2.934266e+000 4.200388e+000 2.103147e-001 -7.793219e+000 -5.471406e+000 1.550128e+000 -9.022635e+000 -5.933758e+000 4.382083e+000 5.243290e+000 2.427442e+000 -1.669901e+000 7.024892e+001 2.455498e-002 2.093455e-002 -3.266111e-003 -2.074777e-001 -1.553352e-001 -6.096783e-002 3.684469e-002 3.029889e-002 -7.364822e-002 6.979101e-002 1.271143e-001 1.590621e-001 7.608527e-002 -7.826780e-003 3.139743e-003 -1.814880e-002 -3.752321e-003 -1.447895e-002 -4.948280e-002 -6.840259e-003 -3.319898e-003 -3.753801e-002 -6.041567e-003 -4.154791e-003 4.285102e-002 -5.272030e-003
<VARIANCE> 39
 1.534921e+001 3.283963e+000 1.236382e+001 2.613206e+001 1.080905e+001 1.095371e+001 2.270376e+001 3.531739e+001 1.495365e+001 1.797883e+001 1.447229e+001 1.795805e+001 9.703390e+000 1.255300e-001 2.872967e-001 5.367092e-001 5.543366e-001 9.348887e-001 9.849606e-001 1.107259e+000 1.068489e+000 1.424653e+000 1.472614e+000 1.568776e+000 1.368061e+000 3.807156e-002 1.786575e-002 5.350495e-002 7.677370e-002 1.010308e-001 1.695147e-001 1.749240e-001 2.086533e-001 1.777566e-001 2.314169e-001 2.952274e-001 2.897701e-001 2.514974e-001 6.688964e-003
<GCONST> 7.111588e+001
<STATE> 7
<MEAN> 39
 -2.577819e+000 4.858639e+000 -3.009604e+000 -1.045324e+001 -2.752394e+000 1.976932e+000 -5.878570e+000 -5.771390e+000 -1.779558e+000 2.145808e+000 -5.749407e-001 -3.025296e+000 7.053400e+001 1.395195e-001 1.859066e-002 -1.121591e-001 1.307795e-001 3.404308e-001 9.241210e-002 -6.132754e-002 -1.441006e-001 -6.755792e-002 -7.846084e-002 -1.764124e-001 -9.208356e-002 4.359284e-002 -1.987291e-002 3.020682e-003 4.916864e-002 -2.405644e-002 -2.404713e-002 -8.532076e-002 -4.693207e-002 -3.835958e-002 2.590549e-002 -2.634485e-002 7.278599e-003 -4.148525e-002 3.067294e-002
<VARIANCE> 39
 1.482198e+001 2.827424e+000 2.800459e+001 5.162753e+001 1.834384e+001 1.421990e+001 2.907398e+001 6.243328e+001 2.055996e+001 9.842425e+000 7.371387e+000 1.673013e+001 1.152046e+001 8.096297e-001 2.275543e-001 6.650648e-001 5.145333e-001 1.107868e+000 1.313831e+000 2.413813e+000 2.646306e+000 1.084822e+000 9.745325e-001 6.772025e-001 1.219585e+000 2.927696e-001 2.009021e-001 3.262937e-002 1.541111e-001 7.787299e-002 2.866283e-001 2.522591e-001 3.904044e-001 5.437149e-001 2.029902e-001 1.591408e-001 1.333246e-001 2.807539e-001 6.772028e-002
<GCONST> 8.339062e+001
<STATE> 8
<MEAN> 39
 -1.247838e+001 -6.425545e+000 6.876776e+000 -9.481729e+000 4.779134e-002 -9.808710e+000 -5.426499e+000 -6.365841e+000 3.245014e-001 -3.267601e+000 -2.979798e+000 -2.411933e+000 8.175459e+001 -1.052553e+000 -8.747723e-001 1.336759e+000 8.934632e-001 1.495732e-001 -6.715605e-001 3.073005e-001 3.213723e-001 3.190751e-001 -7.540158e-001 -3.025129e-001 2.921340e-002 6.614957e-001 6.400343e-002 1.853049e-002 -4.019068e-002 7.605404e-002 9.149933e-002 4.151616e-001 2.780489e-001 1.733445e-001 1.011428e-001 1.294086e-001 5.566305e-002 1.619466e-001 -1.363346e-001
<VARIANCE> 39
 3.431215e+001 5.178220e+001 5.033477e+001 4.564296e+001 9.805436e+000 2.891950e+001 4.964763e+000 1.340901e+001 1.649482e+001 2.934964e+001 6.594652e+000 1.309580e+001 2.475499e+001 1.240542e+000 1.689300e+000 2.929890e+000 1.539294e+000 1.534122e+000 4.631329e+000 6.029609e-001 7.860466e-001 3.571704e+000 2.773210e+000 2.994576e-001 1.841692e+000 9.784443e-001 2.752151e-001 2.698293e-001 5.866905e-001 2.594553e-001 1.470152e-001 2.935220e-001 2.315179e-001 1.884163e-001 1.025845e+000 7.558975e-001 8.531354e-002 4.017452e-001 7.074373e-002
<GCONST> 9.869722e+001
<STATE> 9
<MEAN> 39
 -8.713767e+000 -5.179367e-001 5.518712e+000 -2.825409e+000 6.724271e-001 4.615102e+000 -1.302515e+000 2.651903e+000 5.997041e+000 -3.345202e-001 -1.660599e+000 -8.832180e-001 7.344791e+001 -1.128700e-001 -1.316949e-001 7.443605e-003 -6.744230e-002 4.162971e-002 1.552823e-001 9.313025e-002 1.675793e-001 1.600082e-001 -2.136216e-003 3.763500e-002 3.893496e-003 1.485799e-001 1.293711e-003 -1.527727e-002 -6.231954e-003 -3.983006e-003 -9.035929e-003 -3.760035e-002 -1.898655e-002 -5.051637e-002 -3.070527e-002 -1.559126e-002 -1.705754e-002 -2.575935e-002 1.765875e-002
<VARIANCE> 39
 3.220625e+001 3.241080e+001 1.760212e+001 9.675813e+000 7.664961e+001 3.985633e+001 2.353224e+001 1.451935e+001 2.062231e+001 1.743739e+001 2.373199e+001 1.554285e+001 6.001154e+001 7.322388e-001 1.007432e+000 6.865306e-001 8.776605e-001 8.772694e-001 2.299496e+000 2.010885e+000 1.015046e+000 1.607220e+000 1.314324e+000 1.496908e+000 1.104013e+000 2.674991e-001 7.220142e-002 1.304237e-001 8.335447e-002 1.768891e-001 1.524929e-001 3.841446e-001 3.365394e-001 1.673470e-001 2.583796e-001 2.250017e-001 2.942537e-001 2.367265e-001 2.316080e-002
<GCONST> 9.017912e+001
<TRANSP> 10
 0.000000e+000 1.000000e+000 0.000000e+000 0.000000e+000 0.000000e+000 0.000000e+000 0.000000e+000 0.000000e+000 0.000000e+000 0.000000e+000
 0.000000e+000 9.260685e-001 7.393149e-002 0.000000e+000 0.000000e+000 0.000000e+000 0.000000e+000 0.000000e+000 0.000000e+000 0.000000e+000
 0.000000e+000 0.000000e+000 9.229190e-001 7.708104e-002 0.000000e+000 0.000000e+000 0.000000e+000 0.000000e+000 0.000000e+000 0.000000e+000
 0.000000e+000 0.000000e+000 0.000000e+000 9.258991e-001 7.410096e-002 0.000000e+000 0.000000e+000 0.000000e+000 0.000000e+000 0.000000e+000
 0.000000e+000 0.000000e+000 0.000000e+000 0.000000e+000 9.813111e-001 1.868893e-002 0.000000e+000 0.000000e+000 0.000000e+000 0.000000e+000
 0.000000e+000 0.000000e+000 0.000000e+000 0.000000e+000 0.000000e+000 9.722499e-001 2.775009e-002 0.000000e+000 0.000000e+000 0.000000e+000
 0.000000e+000 0.000000e+000 0.000000e+000 0.000000e+000 0.000000e+000 0.000000e+000 9.564484e-001 4.355162e-002 0.000000e+000 0.000000e+000
 0.000000e+000 0.000000e+000 0.000000e+000 0.000000e+000 0.000000e+000 0.000000e+000 0.000000e+000 8.750206e-001 1.249793e-001 0.000000e+000
 0.000000e+000 0.000000e+000 0.000000e+000 0.000000e+000 0.000000e+000 0.000000e+000 0.000000e+000 0.000000e+000 9.753083e-001 2.469172e-002
 0.000000e+000 0.000000e+000 0.000000e+000 0.000000e+000 0.000000e+000 0.000000e+000 0.000000e+000 0.000000e+000 0.000000e+000 0.000000e+000
<ENDHMM>
