~o
<STREAMINFO> 1 39
<VECSIZE> 39<NULLD><MFCC_D_A_0><DIAGC>
~h "ccc"
<BEGINHMM>
<NUMSTATES> 10
<STATE> 2
<MEAN> 39
 -1.126316e+001 4.797420e+000 -3.182926e+000 -5.909967e+000 -7.976388e+000 2.048801e-001 -9.324673e-001 2.715933e+000 3.521021e+000 5.607718e-001 -4.170702e-001 -1.154473e+000 6.181635e+001 -4.204459e-002 -5.583486e-002 -1.905753e-002 2.143841e-002 -1.494021e-002 2.034971e-002 1.140689e-001 3.242924e-003 -1.475779e-002 6.478269e-002 -1.295699e-002 2.543215e-002 -1.985669e-002 -2.950960e-003 -2.847925e-003 -1.262293e-003 -1.007710e-002 3.100023e-003 5.706685e-003 -6.575544e-003 2.416023e-002 2.510199e-002 -3.754228e-003 1.804389e-002 -8.194394e-003 1.973293e-003
<VARIANCE> 39
 1.043887e+000 1.698972e+000 3.773907e+000 5.003957e+000 6.307170e+000 6.381933e+000 8.453303e+000 7.337622e+000 1.192391e+001 7.547096e+000 8.421816e+000 8.152326e+000 2.890294e-001 1.094959e-001 2.406483e-001 3.494685e-001 6.236175e-001 9.426483e-001 9.783818e-001 8.554057e-001 8.151404e-001 1.410466e+000 6.669203e-001 1.116152e+000 8.260103e-001 1.993037e-002 2.458424e-002 5.047132e-002 6.159064e-002 1.265958e-001 2.072241e-001 2.043498e-001 1.740115e-001 1.616130e-001 3.110666e-001 1.235175e-001 2.420369e-001 1.385344e-001 1.000000e-002
<GCONST> 5.130095e+001
<STATE> 3
<MEAN> 39
 -1.112414e+001 4.474532e+000 -3.935138e+000 -5.707715e+000 -6.653904e+000 1.657647e+000 -5.643390e-002 4.075153e+000 5.849021e+000 2.755520e+000 -4.684126e-001 -2.056845e+000 6.190912e+001 1.073056e-001 9.762613e-002 -6.902965e-002 -1.219548e-001 -1.210044e-001 -1.114330e-001 -1.756855e-001 3.622598e-002 -1.467631e-001 -4.884300e-002 1.909312e-001 5.641946e-002 2.163316e-002 -2.876088e-003 1.382411e-002 -9.612806e-003 -2.128083e-002 -2.312658e-002 -6.797670e-002 -8.126321e-002 -8.431770e-002 -4.988625e-002 -5.587070e-002 -5.137905e-002 -4.530165e-002 -6.988546e-003
<VARIANCE> 39
 9.416422e-001 2.214869e+000 1.980955e+000 6.826626e+000 1.002631e+001 6.739635e+000 6.772011e+000 1.072268e+001 1.166009e+001 1.668256e+001 1.162063e+001 1.288558e+001 1.903076e-001 5.931675e-002 2.245441e-001 2.210478e-001 8.715056e-001 6.341667e-001 1.013372e+000 1.061982e+000 1.198070e+000 1.345767e+000 1.811100e+000 1.234271e+000 1.765524e+000 3.308892e-002 1.510700e-002 5.361070e-002 4.034004e-002 2.009407e-001 1.320845e-001 1.866913e-001 1.897670e-001 2.212280e-001 2.845145e-001 2.995319e-001 2.777323e-001 3.954019e-001 1.000000e-002
<GCONST> 5.614634e+001
<STATE> 4
<MEAN> 39
 -1.088976e+001 5.303654e+000 -2.814423e+000 -7.023107e+000 -9.541932e+000 -9.028550e-001 -2.305922e+000 3.151718e+000 4.367721e+000 5.831596e-001 -9.924410e-001 -2.506587e+000 6.204927e+001 -3.671742e-002 -2.985699e-002 -4.000845e-003 1.985799e-003 2.000209e-002 -1.007331e-002 9.802604e-002 -2.587010e-002 2.473028e-002 -1.771154e-002 -8.169401e-003 -2.243748e-002 -1.125530e-002 -4.684562e-003 2.049380e-003 8.990131e-004 1.285649e-002 1.303516e-002 1.997849e-002 4.704318e-002 1.180858e-002 -1.751444e-002 -3.407105e-002 -1.246416e-003 4.330262e-002 -7.666914e-003
<VARIANCE> 39
 5.181468e-001 1.925951e+000 3.421564e+000 1.226600e+001 1.624193e+001 7.955598e+000 1.305301e+001 8.177033e+000 1.265866e+001 1.457833e+001 1.082706e+001 1.288468e+001 2.989239e-001 6.684283e-002 1.695580e-001 3.992699e-001 5.950267e-001 4.977539e-001 4.935086e-001 8.222257e-001 7.672231e-001 8.133100e-001 7.490705e-001 1.048908e+000 1.621505e+000 2.498002e-002 1.266327e-002 3.174311e-002 7.799108e-002 1.212667e-001 9.034835e-002 1.090777e-001 1.668563e-001 1.083513e-001 1.404660e-001 1.884567e-001 2.336714e-001 3.544025e-001 1.000000e-002
<GCONST> 5.061546e+001
<STATE> 5
<MEAN> 39
 -1.173779e+001 5.118183e+000 -4.200359e+000 -6.469553e+000 -7.910232e+000 6.644849e-001 3.765536e-001 3.733593e+000 2.229600e+000 -1.050767e+000 -1.326380e+000 -2.445464e+000 6.129972e+001 -2.103993e-002 -8.405258e-003 -1.006999e-002 -2.121214e-002 9.440696e-003 6.316806e-002 -4.303578e-003 2.130635e-002 2.978917e-002 8.976538e-003 -2.434092e-002 6.293029e-002 -6.150270e-003 1.069762e-002 -6.626925e-003 1.411815e-002 -7.324284e-003 -1.834938e-002 -7.302024e-004 1.540166e-002 9.945313e-003 5.846646e-003 3.729994e-002 4.131624e-002 7.743747e-003 1.357039e-002
<VARIANCE> 39
 7.486203e-001 3.299914e+000 2.844237e+000 6.394527e+000 8.438633e+000 7.786695e+000 9.886246e+000 1.149193e+001 1.539618e+001 1.222670e+001 9.547551e+000 9.767775e+000 1.714976e-001 9.262707e-002 3.049722e-001 3.248043e-001 3.390210e-001 7.187631e-001 9.752457e-001 1.526368e+000 1.522320e+000 1.248602e+000 1.385183e+000 1.152973e+000 1.055360e+000 2.127877e-002 2.269848e-002 6.686506e-002 7.424340e-002 6.528572e-002 1.570134e-001 2.002800e-001 3.469301e-001 3.584553e-001 2.850581e-001 3.000340e-001 2.167337e-001 2.048493e-001 1.000000e-002
<GCONST> 5.647658e+001
<STATE> 6
<MEAN> 39
 -1.125128e+001 3.851630e+000 -2.248935e+000 -7.449437e+000 -1.093942e+001 2.782856e-001 -9.253148e-001 3.140649e+000 3.262157e+000 -4.551847e-001 -3.632378e-001 -1.000126e+000 6.253584e+001 2.292839e-002 1.075128e-002 8.934505e-002 -1.077274e-002 -1.114370e-002 -1.146067e-001 -7.345925e-002 2.614927e-003 -1.240676e-001 -1.810293e-002 -6.968079e-002 -1.072822e-001 3.191001e-002 -1.576332e-002 -3.115841e-003 4.773543e-003 -2.481286e-003 2.049352e-002 -3.232411e-002 -3.793260e-002 -2.041884e-002 -3.193182e-002 -1.120699e-003 -5.231210e-002 -3.217405e-002 -2.169768e-003
<VARIANCE> 39
 2.648344e+000 2.915143e+000 7.623820e+000 7.407475e+000 1.069595e+001 7.587700e+000 1.329908e+001 1.061780e+001 1.038259e+001 1.392529e+001 9.879547e+000 1.124226e+001 1.024084e+000 2.345782e-001 2.847438e-001 5.441921e-001 1.006028e+000 1.280587e+000 9.109279e-001 1.335794e+000 1.099130e+000 1.754949e+000 1.528230e+000 1.088267e+000 1.110593e+000 1.076238e-001 4.535932e-002 5.388698e-002 1.144958e-001 2.221805e-001 2.334352e-001 1.496844e-001 2.870216e-001 2.203869e-001 3.856893e-001 3.302708e-001 2.140286e-001 1.978794e-001 2.173592e-002
<GCONST> 6.813443e+001
<STATE> 7
<MEAN> 39
 -1.802115e+001 -7.541676e+000 3.221254e+000 -1.006369e+001 5.081021e+000 -6.401608e+000 -4.897182e+000 3.060046e+000 4.470605e+000 3.047224e+000 -2.229688e+000 -5.150660e+000 7.076501e+001 -1.987422e-002 -8.196633e-001 4.815197e-001 3.329819e-001 1.206558e+000 6.330327e-001 -1.842606e-001 -4.265001e-001 7.107984e-001 1.908836e-001 5.473034e-002 1.205492e-001 7.044934e-001 2.049323e-001 1.760044e-001 9.641425e-002 2.683337e-001 1.015582e-001 2.927533e-001 1.474024e-001 4.948995e-002 8.753654e-002 -6.706651e-002 4.356299e-003 -1.401140e-002 -1.486538e-003
<VARIANCE> 39
 1.017291e+001 4.577831e+001 1.197503e+001 5.030504e+000 5.717392e+001 2.113969e+001 9.640377e+000 1.266512e+001 4.019859e+001 1.091466e+001 1.400661e+001 1.306648e+001 2.450306e+001 1.145614e+000 1.621043e+000 1.661996e+000 1.367791e+000 1.768180e+000 2.466313e+000 1.122981e+000 8.807483e-001 4.134208e+000 2.386832e+000 1.436731e+000 1.621266e+000 1.005837e+000 4.250716e-002 1.792255e-001 3.152390e-001 2.075562e-001 3.043280e-001 1.112862e-001 4.127868e-001 3.252439e-001 1.140157e+000 3.816682e-001 2.200020e-001 3.862270e-001 1.388921e-001
<GCONST> 9.608721e+001
<STATE> 8
<MEAN> 39
 -3.821390e+000 -6.267950e+000 2.290307e+000 -1.266994e+000 1.803879e+001 1.576948e+001 -2.218908e+000 -5.939547e-001 1.038342e+001 7.688267e+000 -4.969553e+000 -6.649569e+000 8.190444e+001 3.501868e-001 1.266999e-001 -1.252145e-003 2.098292e-001 5.507236e-002 1.455675e-001 -5.227005e-002 -1.964271e-003 -3.481660e-002 -1.973623e-001 -5.047098e-001 -2.476665e-001 4.030737e-001 -7.246333e-002 -5.227485e-002 -6.109218e-002 -7.634930e-002 -5.959971e-002 -1.121178e-001 -1.399608e-001 -4.995583e-002 1.290241e-002 -2.618309e-002 -3.654042e-002 7.230938e-003 -5.333296e-003
<VARIANCE> 39
 6.870662e+000 6.395369e+000 6.577039e+000 6.906331e+000 4.209109e+001 3.141451e+001 9.944779e+000 1.188412e+001 1.358589e+001 3.003729e+001 8.079133e+000 7.414012e+000 2.484202e+001 6.894751e-001 4.711261e-001 8.321061e-001 1.446984e+000 1.083991e+000 3.257255e+000 2.550480e+000 1.306021e+000 1.333461e+000 1.165941e+000 1.140538e+000 9.248105e-001 1.210055e-001 3.549829e-002 6.190482e-002 1.557880e-001 3.208654e-001 1.945204e-001 3.680103e-001 5.148171e-001 2.308947e-001 2.762443e-001 1.326890e-001 1.337612e-001 1.552017e-001 1.477068e-002
<GCONST> 7.918180e+001
<STATE> 9
<MEAN> 39
 -5.916707e+000 3.527538e+000 2.072100e+000 -4.695145e+000 -5.780527e-001 -1.413134e-001 -7.896996e+000 -5.852704e+000 1.721901e+000 -2.842990e+000 -7.551446e+000 -8.148346e+000 7.242904e+001 -2.630978e-001 -9.253905e-002 -8.192852e-002 -2.177638e-001 -4.527363e-002 -2.339406e-001 -1.377049e-001 -5.907749e-001 1.437384e-001 1.931722e-002 4.188692e-001 -4.318159e-002 -4.714601e-002 -3.947302e-002 -4.220675e-002 -4.362142e-002 -2.499296e-002 -2.670298e-002 2.856442e-002 5.363801e-002 1.241574e-002 1.334618e-002 7.220056e-003 1.384279e-001 4.752752e-002 6.161207e-003
<VARIANCE> 39
 8.283578e+000 6.229244e+001 1.150046e+001 1.349051e+001 1.600884e+002 7.112162e+001 1.870238e+001 3.123600e+001 1.272112e+002 3.904737e+001 2.204794e+001 6.556950e+000 1.091703e+002 7.815260e-001 9.675201e-001 7.534088e-001 1.228580e+000 7.765927e-001 9.336053e-001 1.865175e+000 1.118752e+000 7.849296e-001 5.093113e-001 1.844389e+000 8.031844e-001 1.716717e-001 5.695862e-002 1.231519e-001 1.539795e-001 2.405822e-001 1.166367e-001 1.725032e-001 4.033228e-001 1.847105e-001 1.033521e-001 8.508187e-002 4.220702e-001 1.531084e-001 2.503867e-002
<GCONST> 8.870777e+001
<TRANSP> 10
 0.000000e+000 1.000000e+000 0.000000e+000 0.000000e+000 0.000000e+000 0.000000e+000 0.000000e+000 0.000000e+000 0.000000e+000 0.000000e+000
 0.000000e+000 9.696970e-001 3.030303e-002 0.000000e+000 0.000000e+000 0.000000e+000 0.000000e+000 0.000000e+000 0.000000e+000 0.000000e+000
 0.000000e+000 0.000000e+000 9.393939e-001 6.060605e-002 0.000000e+000 0.000000e+000 0.000000e+000 0.000000e+000 0.000000e+000 0.000000e+000
 0.000000e+000 0.000000e+000 0.000000e+000 9.636363e-001 3.636363e-002 0.000000e+000 0.000000e+000 0.000000e+000 0.000000e+000 0.000000e+000
 0.000000e+000 0.000000e+000 0.000000e+000 0.000000e+000 9.722222e-001 2.777778e-002 0.000000e+000 0.000000e+000 0.000000e+000 0.000000e+000
 0.000000e+000 0.000000e+000 0.000000e+000 0.000000e+000 0.000000e+000 9.777778e-001 2.222222e-002 0.000000e+000 0.000000e+000 0.000000e+000
 0.000000e+000 0.000000e+000 0.000000e+000 0.000000e+000 0.000000e+000 0.000000e+000 8.750000e-001 1.250000e-001 0.000000e+000 0.000000e+000
 0.000000e+000 0.000000e+000 0.000000e+000 0.000000e+000 0.000000e+000 0.000000e+000 0.000000e+000 9.354839e-001 6.451613e-002 0.000000e+000
 0.000000e+000 0.000000e+000 0.000000e+000 0.000000e+000 0.000000e+000 0.000000e+000 0.000000e+000 0.000000e+000 9.487180e-001 5.128206e-002
 0.000000e+000 0.000000e+000 0.000000e+000 0.000000e+000 0.000000e+000 0.000000e+000 0.000000e+000 0.000000e+000 0.000000e+000 0.000000e+000
<ENDHMM>
