~o
<STREAMINFO> 1 39
<VECSIZE> 39<NULLD><MFCC_D_A_0><DIAGC>
~h "aaa"
<BEGINHMM>
<NUMSTATES> 10
<STATE> 2
<MEAN> 39
 -1.014816e+001 8.603331e-001 -8.878337e-001 -8.132561e+000 -9.009949e+000 1.027301e-001 -3.554538e+000 1.979556e+000 2.785288e+000 1.540058e+000 1.714358e+000 -1.602674e+000 6.553801e+001 5.008920e-002 -3.391106e-002 -1.025194e-001 2.036855e-002 1.917035e-002 -4.099809e-002 -1.476537e-001 -2.521776e-001 1.265651e-001 2.345050e-001 2.430290e-001 5.041585e-002 2.095387e-002 8.827448e-003 -1.456374e-002 -3.044887e-002 -4.164350e-002 4.403278e-004 -5.131154e-002 -8.948418e-002 1.069088e-002 -5.482584e-002 5.848647e-002 7.843358e-002 5.483831e-002 1.436925e-003
<VARIANCE> 39
 2.085912e+000 1.061829e+001 4.336066e+000 6.985946e+000 5.602032e+000 8.363302e+000 2.914643e+001 1.449698e+001 1.272799e+001 1.444547e+001 2.479443e+001 1.368643e+001 6.615623e+000 5.673194e-002 3.713138e-001 3.421713e-001 4.012403e-001 5.744396e-001 7.368670e-001 2.296561e+000 1.107107e+000 1.250723e+000 1.719208e+000 1.584747e+000 1.066305e+000 4.499695e-002 1.043260e-002 4.528245e-002 7.671151e-002 6.754356e-002 9.997701e-002 1.352278e-001 5.075707e-001 2.761161e-001 2.291898e-001 3.864171e-001 3.426426e-001 2.449993e-001 1.000000e-002
<GCONST> 6.473072e+001
<STATE> 3
<MEAN> 39
 -7.958176e+000 4.367127e+000 -3.046653e+000 -9.059400e+000 -7.167493e+000 -4.567022e+000 -1.136197e+001 -2.793267e+000 1.051548e+000 4.422511e+000 7.232407e+000 2.365074e+000 6.557903e+001 -8.521383e-002 8.553788e-002 -2.016024e-002 -4.578602e-002 -3.595885e-002 4.718372e-002 2.401163e-001 2.857114e-001 4.043685e-002 3.247152e-002 -3.050109e-002 3.083748e-002 -8.395474e-002 -1.144417e-002 -9.706716e-003 4.893712e-002 2.760022e-002 2.741378e-002 9.041674e-002 5.731890e-002 5.495926e-002 1.685805e-002 -4.742819e-002 -7.807621e-002 -9.325320e-002 7.015999e-003
<VARIANCE> 39
 1.937193e+000 2.696166e+000 2.549779e+000 5.212225e+000 6.647832e+000 1.031853e+001 1.184242e+001 1.067365e+001 6.554056e+000 1.028077e+001 1.176816e+001 9.396607e+000 6.271301e-001 1.010595e-001 1.728043e-001 3.633814e-001 6.921108e-001 9.161087e-001 1.339551e+000 5.466292e-001 9.314405e-001 7.201632e-001 1.891649e+000 1.114914e+000 1.580437e+000 1.509547e-002 1.905672e-002 3.478605e-002 7.173182e-002 1.508824e-001 2.063541e-001 2.631460e-001 1.161941e-001 1.856958e-001 1.483229e-001 4.500560e-001 2.264843e-001 3.160997e-001 1.000000e-002
<GCONST> 5.567555e+001
<STATE> 4
<MEAN> 39
 -1.069563e+001 4.444082e+000 2.735370e+000 -8.232303e+000 -7.411334e+000 -1.911938e+000 -5.782326e+000 2.951441e+000 1.304202e+000 -7.698100e-001 1.604793e+000 -1.429402e+000 6.539386e+001 3.255537e-002 -3.544586e-002 2.447984e-002 8.146150e-002 1.599251e-001 9.064072e-002 2.009198e-003 -5.698269e-002 -6.318082e-002 -1.218066e-001 -1.413643e-001 -2.496667e-002 3.669658e-002 1.990388e-002 -3.633244e-002 -4.873236e-002 2.931707e-002 3.798594e-002 5.467509e-002 -1.485769e-002 -8.451340e-002 1.175398e-002 1.060423e-002 -3.358331e-002 -9.337201e-003 1.438433e-002
<VARIANCE> 39
 9.979932e-001 2.541056e+000 6.715865e+000 3.401955e+000 5.933181e+000 7.544615e+000 9.431657e+000 1.368251e+001 9.151457e+000 1.380368e+001 1.075420e+001 8.038610e+000 6.721247e-001 1.625054e-001 2.636286e-001 7.655517e-001 5.673706e-001 7.816194e-001 1.160894e+000 8.411087e-001 1.471194e+000 1.230159e+000 1.253958e+000 1.140157e+000 6.838923e-001 6.243942e-002 2.882267e-002 6.417508e-002 1.376411e-001 1.281042e-001 1.386461e-001 2.191002e-001 1.784391e-001 2.283450e-001 2.706429e-001 3.154583e-001 2.399187e-001 1.154744e-001 1.000000e-002
<GCONST> 5.916486e+001
<STATE> 5
<MEAN> 39
 -1.044421e+001 -7.608083e-001 -5.563810e+000 -5.755656e+000 -8.413331e+000 -1.009425e+000 -8.805997e-001 6.223982e+000 6.311549e+000 2.359232e+000 9.030788e-001 -2.530227e+000 6.421181e+001 7.121050e-003 1.018982e-002 -3.933740e-002 7.156485e-002 5.332846e-002 -1.744633e-002 -5.169957e-003 7.482716e-003 5.159933e-002 -7.714950e-003 -2.917955e-002 3.284578e-002 -1.464062e-002 -3.885025e-003 5.508923e-003 7.107194e-003 2.291837e-003 -5.909080e-003 -1.742317e-002 -3.224425e-003 -1.077386e-002 3.727685e-003 9.167372e-003 1.468817e-002 8.488897e-003 -1.347122e-003
<VARIANCE> 39
 1.079426e+000 2.288902e+000 3.976455e+000 5.334741e+000 6.339407e+000 1.045613e+001 9.213806e+000 1.257695e+001 1.543368e+001 1.212858e+001 9.925632e+000 1.000491e+001 4.415274e-001 1.264840e-001 2.875848e-001 3.547896e-001 5.375468e-001 6.526979e-001 1.319448e+000 1.154508e+000 1.324335e+000 1.594001e+000 1.560010e+000 1.108424e+000 1.080661e+000 3.997716e-002 2.667741e-002 5.856840e-002 6.741812e-002 1.035531e-001 1.352078e-001 2.704463e-001 2.643967e-001 3.077160e-001 3.211366e-001 2.832438e-001 2.176809e-001 1.962788e-001 1.000000e-002
<GCONST> 5.937304e+001
<STATE> 6
<MEAN> 39
 -1.055679e+001 2.015332e+000 -1.384762e+000 -4.609606e+000 -5.040642e+000 6.782318e-001 -2.520310e+000 4.686523e+000 5.013076e+000 7.112156e-001 9.098899e-001 -1.275672e+000 6.464783e+001 -3.556961e-002 2.389016e-002 8.712216e-002 6.282662e-003 -5.612919e-002 3.469589e-002 4.298860e-002 1.759682e-001 2.199492e-002 -7.210660e-002 2.797203e-002 4.375571e-003 -2.776983e-002 -9.188359e-004 1.073073e-003 1.456101e-002 -4.027723e-002 -2.211426e-002 -4.817488e-002 9.863763e-003 1.862126e-002 -3.480575e-002 -1.319268e-002 9.817677e-003 -2.375808e-002 1.221247e-002
<VARIANCE> 39
 2.460378e+000 6.535407e+000 1.881520e+001 6.332661e+000 9.471618e+000 1.653620e+001 9.900460e+000 1.531198e+001 1.204432e+001 1.688608e+001 1.672581e+001 1.077290e+001 4.031701e+000 1.659320e-001 6.835508e-001 5.705547e-001 6.831915e-001 6.655030e-001 9.192305e-001 1.262553e+000 2.032991e+000 1.142938e+000 1.688216e+000 1.363580e+000 1.287655e+000 9.732608e-002 3.668691e-002 1.425904e-001 1.365267e-001 1.380397e-001 1.375399e-001 2.114020e-001 2.446834e-001 4.948457e-001 1.868362e-001 3.325872e-001 2.468417e-001 2.516864e-001 2.692408e-002
<GCONST> 7.339107e+001
<STATE> 7
<MEAN> 39
 -1.354881e+001 -6.486392e+000 3.729143e+000 -6.960581e+000 -4.163524e+000 -1.658273e+000 -1.074203e+000 1.648337e+000 2.681476e+000 -1.216237e+000 1.269643e+000 -1.862668e+000 7.426643e+001 -7.153352e-001 -2.126651e+000 8.521882e-001 -5.436882e-001 4.739899e-001 -6.618819e-001 -1.393723e-002 -1.223157e+000 -2.060700e-001 4.792928e-001 -3.097793e-001 -4.622196e-001 2.099247e+000 -1.470815e-001 -2.289208e-001 -5.639432e-002 1.047109e-001 9.999572e-002 5.448280e-002 4.043122e-002 1.035867e-001 1.551753e-001 6.387912e-002 -6.390478e-002 7.235132e-002 2.442973e-002
<VARIANCE> 39
 1.551525e+001 3.536998e+001 2.984654e+001 1.390134e+001 1.786192e+001 8.934495e+000 1.509782e+001 2.579573e+001 1.094930e+001 1.848281e+001 1.362698e+001 1.861927e+001 5.472530e+001 1.877584e+000 1.914886e+000 3.914214e+000 6.316136e-001 1.328724e+000 7.751937e-001 8.949958e-001 2.410791e+000 1.257447e+000 2.052382e+000 9.307618e-001 2.588479e+000 1.336018e+000 3.810357e-001 3.986819e-001 7.429516e-001 1.630273e-001 2.095821e-001 8.858618e-002 1.655711e-001 7.332820e-001 2.277897e-001 3.051155e-001 1.466056e-001 5.849587e-001 4.842805e-001
<GCONST> 9.906133e+001
<STATE> 8
<MEAN> 39
 -8.624555e+000 -1.087993e+001 4.975324e+000 -4.752103e+000 1.012667e+001 9.858156e+000 2.341263e+000 2.536992e-001 2.193094e+000 5.368799e+000 -1.406378e+000 -5.668165e+000 8.315398e+001 6.698266e-001 4.734369e-001 -1.464104e-001 2.016311e-001 6.368459e-001 5.675924e-001 1.931509e-001 1.633792e-001 -1.293245e-001 -3.951633e-002 9.881981e-002 -9.382647e-002 1.803435e-001 4.380437e-002 9.770311e-002 5.862340e-003 -9.375699e-003 -8.963799e-002 -4.274744e-002 -8.084356e-003 7.211348e-003 -5.377861e-003 -6.248108e-002 1.296820e-003 -8.101081e-003 -2.238470e-002
<VARIANCE> 39
 6.060948e+001 3.569137e+001 1.514532e+001 1.226303e+001 5.843952e+001 1.036693e+002 2.568859e+001 1.329943e+001 1.781118e+001 2.080530e+001 1.613054e+001 2.049700e+001 1.142177e+001 1.391832e+000 1.167306e+000 1.061570e+000 1.620587e+000 1.651048e+000 4.433004e+000 1.869450e+000 1.523611e+000 1.411708e+000 1.231846e+000 1.693716e+000 1.299058e+000 2.607455e-001 1.908387e-001 2.591456e-001 2.321480e-001 2.967943e-001 2.645808e-001 4.450173e-001 3.273023e-001 3.527015e-001 2.839006e-001 1.741442e-001 3.789817e-001 2.130112e-001 4.043890e-002
<GCONST> 9.862643e+001
<STATE> 9
<MEAN> 39
 -4.075122e-001 -6.518386e+000 -1.478914e+000 -5.513299e+000 7.609450e+000 4.662335e+000 2.579769e-001 3.765224e-002 -1.301046e+000 -4.399903e+000 -7.063590e+000 -1.172775e+001 8.754008e+001 -6.836830e-002 -1.076130e-001 3.039232e-003 -1.234782e-001 -3.666404e-001 -3.233943e-001 -1.199886e-001 -1.927048e-001 -2.164014e-002 -1.722990e-001 -1.951058e-001 -2.691705e-001 3.995622e-002 -7.018999e-002 -5.274840e-003 8.822612e-002 -1.220344e-002 2.037509e-002 4.880828e-003 2.494786e-002 -1.963147e-002 -2.418919e-003 1.808005e-002 3.789521e-002 4.284181e-002 -9.946781e-003
<VARIANCE> 39
 4.438920e+000 2.923856e+000 5.092189e+000 8.972907e+000 1.479332e+001 1.176238e+001 1.012239e+001 1.120349e+001 3.231656e+001 2.723412e+001 2.267921e+001 8.544212e+000 5.684038e+000 4.514570e-001 1.842844e-001 9.900993e-001 8.620442e-001 1.112413e+000 1.181392e+000 1.097258e+000 1.048406e+000 1.849886e+000 1.527953e+000 1.877475e+000 6.972315e-001 1.623691e-001 7.771400e-002 3.436131e-002 1.065776e-001 1.915587e-001 2.151293e-001 2.550409e-001 2.554542e-001 1.993228e-001 2.887902e-001 1.896941e-001 3.030573e-001 1.186278e-001 2.127336e-002
<GCONST> 7.321805e+001
<TRANSP> 10
 0.000000e+000 1.000000e+000 0.000000e+000 0.000000e+000 0.000000e+000 0.000000e+000 0.000000e+000 0.000000e+000 0.000000e+000 0.000000e+000
 0.000000e+000 9.555556e-001 4.444444e-002 0.000000e+000 0.000000e+000 0.000000e+000 0.000000e+000 0.000000e+000 0.000000e+000 0.000000e+000
 0.000000e+000 0.000000e+000 9.354839e-001 6.451613e-002 0.000000e+000 0.000000e+000 0.000000e+000 0.000000e+000 0.000000e+000 0.000000e+000
 0.000000e+000 0.000000e+000 0.000000e+000 9.545454e-001 4.545454e-002 0.000000e+000 0.000000e+000 0.000000e+000 0.000000e+000 0.000000e+000
 0.000000e+000 0.000000e+000 0.000000e+000 0.000000e+000 9.793814e-001 2.061855e-002 0.000000e+000 0.000000e+000 0.000000e+000 0.000000e+000
 0.000000e+000 0.000000e+000 0.000000e+000 0.000000e+000 0.000000e+000 9.718310e-001 2.816902e-002 0.000000e+000 0.000000e+000 0.000000e+000
 0.000000e+000 0.000000e+000 0.000000e+000 0.000000e+000 0.000000e+000 0.000000e+000 8.823529e-001 1.176471e-001 0.000000e+000 0.000000e+000
 0.000000e+000 0.000000e+000 0.000000e+000 0.000000e+000 0.000000e+000 0.000000e+000 0.000000e+000 9.574468e-001 4.255319e-002 0.000000e+000
 0.000000e+000 0.000000e+000 0.000000e+000 0.000000e+000 0.000000e+000 0.000000e+000 0.000000e+000 0.000000e+000 9.600000e-001 4.000000e-002
 0.000000e+000 0.000000e+000 0.000000e+000 0.000000e+000 0.000000e+000 0.000000e+000 0.000000e+000 0.000000e+000 0.000000e+000 0.000000e+000
<ENDHMM>
