~o
<STREAMINFO> 1 39
<VECSIZE> 39<NULLD><MFCC_D_A_0><DIAGC>
~h "bbb"
<BEGINHMM>
<NUMSTATES> 10
<STATE> 2
<MEAN> 39
 -5.019092e+000 -2.244229e+000 -5.783997e+000 -4.562523e+000 5.559376e+000 5.298016e+000 -1.097950e+001 -6.268692e+000 2.048505e+000 9.587168e-001 -7.196344e+000 -6.259122e+000 7.070869e+001 3.501705e-002 1.339211e-002 3.914208e-002 4.527446e-001 1.450622e-001 9.309129e-002 -7.941832e-002 -7.793068e-002 2.232387e-001 -2.535012e-001 -3.786663e-001 6.061111e-002 -8.581469e-002 -8.393331e-003 -4.340913e-002 1.588642e-002 4.284952e-002 1.716621e-002 4.195823e-004 1.470708e-002 -4.596952e-002 -7.396701e-002 3.268046e-003 8.418744e-002 2.110037e-002 7.744039e-003
<VARIANCE> 39
 2.207583e+000 4.333648e+000 4.060894e+000 2.690175e+001 1.368787e+001 9.525245e+000 1.511890e+001 1.351714e+001 3.677687e+001 2.884403e+001 1.810299e+001 9.124664e+000 3.948142e+000 6.530461e-002 2.827851e-001 3.537373e-001 7.134503e-001 6.717435e-001 8.969475e-001 2.567520e+000 1.518768e+000 1.976488e+000 2.839645e+000 1.842417e+000 9.775714e-001 7.987910e-002 1.357624e-002 5.071220e-002 5.508219e-002 8.118016e-002 1.223955e-001 1.697398e-001 6.599345e-001 2.052908e-001 3.150255e-001 4.927229e-001 3.144631e-001 1.934050e-001 1.507247e-002
<GCONST> 7.011668e+001
<STATE> 3
<MEAN> 39
 -4.180347e+000 -2.382680e+000 -3.267355e+000 -2.407679e+000 4.164844e+000 5.419833e+000 -1.152238e+001 -5.561291e+000 1.567295e+000 -3.292552e+000 -6.004136e+000 -7.202308e+000 7.078603e+001 1.535308e-001 1.346808e-001 5.765145e-002 -4.107105e-001 -4.126714e-001 -5.988392e-002 1.515439e-001 3.583641e-001 -1.731835e-001 -9.656399e-002 3.557600e-001 4.731000e-002 1.238719e-001 3.360136e-002 7.865514e-002 9.332284e-003 -3.391340e-002 2.754571e-002 -4.546095e-002 -9.432280e-002 -6.225508e-002 8.366153e-002 6.392084e-002 -1.902125e-002 5.578278e-002 5.655657e-003
<VARIANCE> 39
 4.766256e+000 4.486601e+000 4.163807e+000 1.894032e+001 2.274915e+001 7.420083e+000 1.027730e+001 3.050010e+001 2.542943e+001 2.449261e+001 1.865672e+001 5.940774e+000 4.776068e+000 1.420337e-001 2.362311e-001 5.258641e-001 1.044559e+000 7.220473e-001 7.135113e-001 9.303679e-001 3.184101e+000 2.889895e+000 1.902476e+000 2.132119e+000 8.764486e-001 3.551456e-002 2.410746e-002 5.442384e-002 1.145789e-001 2.140499e-001 1.845790e-001 1.429136e-001 1.846763e-001 6.797105e-001 5.108659e-001 2.266580e-001 3.655471e-001 1.601079e-001 1.000000e-002
<GCONST> 7.245669e+001
<STATE> 4
<MEAN> 39
 -8.048872e-001 3.733001e+000 -1.058156e+000 -5.011029e+000 -2.725389e+000 -1.497551e+000 -1.427531e+001 -1.835411e+000 6.723422e+000 1.729871e+000 -3.645399e-001 -2.017695e+000 7.122850e+001 2.072135e-002 2.532222e-001 1.263657e-001 4.208852e-002 -1.007394e-001 -2.061801e-001 7.542696e-002 -1.506263e-001 -3.189522e-002 2.023773e-001 -6.655302e-002 1.508507e-002 -8.412953e-002 -7.397890e-003 -6.015592e-002 -1.626714e-002 2.600433e-002 3.544385e-002 9.496415e-002 6.285825e-002 3.151237e-002 2.467701e-002 -3.535135e-002 1.405452e-002 -7.338204e-002 -4.794269e-004
<VARIANCE> 39
 6.652440e+000 8.126977e+000 3.681298e+000 7.909036e+000 9.184151e+000 6.541480e+000 2.149234e+001 1.807998e+001 9.935049e+000 1.391480e+001 8.798551e+000 5.075116e+000 4.578356e+000 1.242977e-001 4.767772e-001 4.935924e-001 7.202231e-001 6.265659e-001 3.527076e-001 1.354898e+000 1.321030e+000 1.032404e+000 1.977029e+000 6.467708e-001 6.261799e-001 2.264587e-002 2.324158e-002 6.828301e-002 1.119831e-001 1.312263e-001 1.341846e-001 7.619491e-002 2.683943e-001 3.812615e-001 2.417668e-001 3.841630e-001 7.497071e-002 4.746945e-002 1.000000e-002
<GCONST> 6.043173e+001
<STATE> 5
<MEAN> 39
 -1.131606e+001 5.043097e+000 -1.584209e+000 -5.917184e+000 -8.323322e+000 1.038979e+000 1.084718e-001 3.387551e+000 2.504688e+000 -1.076270e-001 -1.053067e+000 -1.854078e+000 6.201204e+001 1.637496e-002 -3.702654e-002 -1.910095e-002 2.819761e-002 3.317167e-002 5.546531e-002 -4.697481e-002 -7.851677e-002 2.344475e-002 -2.397081e-002 3.672720e-003 9.198228e-003 1.951644e-002 -4.058335e-003 -6.762573e-003 5.954434e-003 5.141951e-003 -2.751484e-003 9.611323e-003 5.744604e-003 -9.762691e-003 -4.144157e-003 -1.697614e-002 -1.121384e-002 -1.066409e-002 2.149153e-003
<VARIANCE> 39
 2.174162e+000 1.967081e+000 4.079316e+000 3.812802e+000 7.985240e+000 8.507600e+000 8.618007e+000 9.059353e+000 8.282248e+000 1.360192e+001 1.186736e+001 1.140381e+001 1.303381e+000 9.354278e-002 1.774022e-001 3.308537e-001 4.732834e-001 9.215238e-001 1.029846e+000 7.818177e-001 9.895363e-001 8.409602e-001 1.516235e+000 1.339116e+000 1.098343e+000 2.963293e-002 1.967555e-002 3.335411e-002 6.275242e-002 8.649509e-002 1.848384e-001 1.987887e-001 1.674771e-001 1.915467e-001 1.712917e-001 3.026650e-001 2.875787e-001 2.143741e-001 1.000000e-002
<GCONST> 5.555663e+001
<STATE> 6
<MEAN> 39
 -3.260949e+000 4.030947e+000 7.028236e-002 -7.546025e+000 -5.427981e+000 1.633449e+000 -8.704126e+000 -5.796183e+000 4.313980e+000 5.016049e+000 2.300989e+000 -1.637857e+000 6.998409e+001 3.171063e-002 1.019283e-002 9.773335e-003 -1.782825e-001 -1.179006e-001 -5.507578e-002 5.859077e-002 -2.908322e-003 -9.181675e-002 9.094840e-002 1.377113e-001 1.152084e-001 8.075398e-002 1.117658e-003 1.770746e-002 -1.404782e-002 -1.704889e-002 -1.403139e-002 -4.937666e-002 -2.282169e-002 1.858714e-002 -8.935878e-003 1.476587e-002 3.965460e-003 3.337780e-002 -2.360454e-003
<VARIANCE> 39
 1.717522e+001 3.825882e+000 1.242207e+001 2.648980e+001 1.082035e+001 1.110549e+001 2.435785e+001 3.422056e+001 1.458447e+001 1.842264e+001 1.440036e+001 1.729032e+001 1.090579e+001 1.310959e-001 2.908717e-001 5.211828e-001 5.592529e-001 9.402862e-001 9.478208e-001 1.089405e+000 1.065355e+000 1.391912e+000 1.472198e+000 1.524781e+000 1.368064e+000 3.823622e-002 1.902145e-002 5.670928e-002 7.446770e-002 1.009884e-001 1.634962e-001 1.718543e-001 2.072408e-001 1.871352e-001 2.456736e-001 2.951126e-001 2.824581e-001 2.460895e-001 1.000000e-002
<GCONST> 7.195684e+001
<STATE> 7
<MEAN> 39
 -2.687482e+000 5.335774e+000 -1.778309e+000 -8.828435e+000 -3.542393e+000 1.211357e+000 -6.082319e+000 -4.904183e+000 -1.220042e+000 1.711001e+000 -4.237921e-001 -2.697451e+000 7.017062e+001 2.806694e-002 2.433269e-002 -3.020660e-002 2.366333e-001 3.583461e-001 2.224894e-001 1.066550e-001 -5.005380e-002 -3.026227e-002 -5.395529e-002 -1.716482e-001 -2.739221e-001 -1.899569e-002 -1.490912e-002 -2.035662e-002 6.254597e-003 -1.837729e-002 1.411087e-002 7.550821e-002 3.892072e-002 -4.781292e-003 2.322327e-002 6.631920e-003 8.711080e-003 -6.056076e-003 -5.228563e-003
<VARIANCE> 39
 1.495483e+001 2.339526e+000 3.065261e+001 6.272358e+001 1.524528e+001 1.182010e+001 2.917384e+001 6.427660e+001 2.247282e+001 1.161870e+001 7.726756e+000 1.502883e+001 1.166543e+001 9.269280e-001 2.156198e-001 7.175053e-001 4.491431e-001 1.217822e+000 1.328387e+000 2.484781e+000 2.713468e+000 1.107517e+000 1.069362e+000 7.521566e-001 7.293881e-001 3.075018e-001 1.994827e-001 3.191055e-002 1.507271e-001 8.773578e-002 2.937483e-001 2.538023e-001 4.223265e-001 5.527455e-001 2.195846e-001 1.853071e-001 1.549105e-001 1.884895e-001 6.542926e-002
<GCONST> 8.344108e+001
<STATE> 8
<MEAN> 39
 -1.015027e+001 -4.430313e+000 3.421380e+000 -1.043562e+001 7.048213e-001 -5.634505e+000 -4.853960e+000 -6.965636e+000 -2.428395e-001 -1.041022e+000 -2.463769e+000 -2.779601e+000 7.935269e+001 -7.477404e-001 -7.286669e-001 9.023000e-001 3.903476e-001 1.140703e-001 -5.025369e-001 2.082264e-001 2.242273e-001 4.724953e-001 -2.554261e-001 -6.482530e-002 3.542911e-001 5.635893e-001 5.112097e-002 5.744710e-002 3.163575e-002 -4.801340e-002 5.744859e-003 5.303493e-002 4.670574e-002 5.162216e-002 4.113738e-002 9.720401e-004 3.407254e-003 3.157122e-002 -1.516578e-002
<VARIANCE> 39
 4.376327e+001 5.147964e+001 7.455404e+001 4.042272e+001 8.587781e+000 7.634601e+001 5.976669e+000 1.189683e+001 1.750508e+001 3.350377e+001 7.269804e+000 1.540077e+001 3.779357e+001 1.206058e+000 1.399251e+000 2.768967e+000 2.017480e+000 1.119290e+000 4.117394e+000 9.824675e-001 6.804768e-001 3.027853e+000 3.118868e+000 5.154996e-001 2.402682e+000 7.680017e-001 2.227254e-001 2.097075e-001 4.766878e-001 2.491701e-001 1.848445e-001 5.055833e-001 3.470718e-001 1.669872e-001 8.317571e-001 6.328222e-001 7.062750e-002 5.526093e-001 7.755065e-002
<GCONST> 1.015917e+002
<STATE> 9
<MEAN> 39
 -9.036396e+000 -9.682148e-001 5.631372e+000 -3.116564e+000 1.011628e+000 4.875876e+000 -1.070947e+000 2.869773e+000 6.185525e+000 -4.835878e-001 -1.811857e+000 -8.700990e-001 7.379230e+001 -6.766762e-002 -1.269279e-001 -1.061088e-002 -5.558069e-002 3.490118e-002 8.283636e-002 3.674992e-003 1.256843e-001 8.416814e-002 -1.054759e-001 -9.163403e-003 2.311051e-002 1.797642e-001 -2.495507e-003 -1.409245e-002 2.402674e-003 2.200152e-002 -1.438150e-002 -6.432150e-002 -2.690166e-002 -5.097339e-002 -2.025716e-002 -1.010372e-002 -8.026882e-003 -2.433062e-002 1.583934e-002
<VARIANCE> 39
 3.259203e+001 3.121487e+001 1.824948e+001 8.831922e+000 7.953653e+001 4.077787e+001 2.334395e+001 1.418705e+001 2.054013e+001 1.738958e+001 2.436573e+001 1.636018e+001 6.204285e+001 7.355927e-001 1.066467e+000 7.106900e-001 8.452964e-001 8.748078e-001 2.298613e+000 1.966875e+000 1.050668e+000 1.596578e+000 1.157037e+000 1.490785e+000 1.121207e+000 2.662284e-001 7.428250e-002 1.371970e-001 8.406705e-002 1.686737e-001 1.400004e-001 3.641541e-001 3.077033e-001 1.728390e-001 2.545954e-001 2.121850e-001 2.996716e-001 2.460876e-001 2.397798e-002
<GCONST> 9.003336e+001
<TRANSP> 10
 0.000000e+000 1.000000e+000 0.000000e+000 0.000000e+000 0.000000e+000 0.000000e+000 0.000000e+000 0.000000e+000 0.000000e+000 0.000000e+000
 0.000000e+000 9.259259e-001 7.407407e-002 0.000000e+000 0.000000e+000 0.000000e+000 0.000000e+000 0.000000e+000 0.000000e+000 0.000000e+000
 0.000000e+000 0.000000e+000 9.259259e-001 7.407407e-002 0.000000e+000 0.000000e+000 0.000000e+000 0.000000e+000 0.000000e+000 0.000000e+000
 0.000000e+000 0.000000e+000 0.000000e+000 9.230769e-001 7.692308e-002 0.000000e+000 0.000000e+000 0.000000e+000 0.000000e+000 0.000000e+000
 0.000000e+000 0.000000e+000 0.000000e+000 0.000000e+000 9.807692e-001 1.923077e-002 0.000000e+000 0.000000e+000 0.000000e+000 0.000000e+000
 0.000000e+000 0.000000e+000 0.000000e+000 0.000000e+000 0.000000e+000 9.733334e-001 2.666667e-002 0.000000e+000 0.000000e+000 0.000000e+000
 0.000000e+000 0.000000e+000 0.000000e+000 0.000000e+000 0.000000e+000 0.000000e+000 9.565217e-001 4.347826e-002 0.000000e+000 0.000000e+000
 0.000000e+000 0.000000e+000 0.000000e+000 0.000000e+000 0.000000e+000 0.000000e+000 0.000000e+000 9.047619e-001 9.523809e-002 0.000000e+000
 0.000000e+000 0.000000e+000 0.000000e+000 0.000000e+000 0.000000e+000 0.000000e+000 0.000000e+000 0.000000e+000 9.736842e-001 2.631579e-002
 0.000000e+000 0.000000e+000 0.000000e+000 0.000000e+000 0.000000e+000 0.000000e+000 0.000000e+000 0.000000e+000 0.000000e+000 0.000000e+000
<ENDHMM>
