~o
<STREAMINFO> 1 39
<VECSIZE> 39<NULLD><MFCC_D_A_0><DIAGC>
~h "aaa"
<BEGINHMM>
<NUMSTATES> 10
<STATE> 2
<MEAN> 39
 -1.015013e+001 8.609653e-001 -8.874785e-001 -8.131354e+000 -9.013872e+000 1.038926e-001 -3.543992e+000 1.988179e+000 2.786523e+000 1.537586e+000 1.713543e+000 -1.602089e+000 6.553600e+001 4.978209e-002 -3.458289e-002 -1.021620e-001 2.051164e-002 1.949822e-002 -3.989843e-002 -1.462992e-001 -2.525018e-001 1.260905e-001 2.327099e-001 2.407364e-001 4.850806e-002 2.107069e-002 8.799928e-003 -1.458783e-002 -3.004700e-002 -4.137619e-002 8.971423e-004 -5.083996e-002 -9.003604e-002 1.016886e-002 -5.455114e-002 5.803867e-002 7.777905e-002 5.419252e-002 1.453504e-003
<VARIANCE> 39
 2.084019e+000 1.062820e+001 4.339911e+000 6.991271e+000 5.590538e+000 8.369927e+000 2.905989e+001 1.443293e+001 1.273866e+001 1.445267e+001 2.481671e+001 1.369847e+001 6.618111e+000 5.668359e-002 3.712072e-001 3.423459e-001 4.015960e-001 5.748554e-001 7.362723e-001 2.296749e+000 1.107977e+000 1.251672e+000 1.717229e+000 1.580431e+000 1.063323e+000 4.502534e-002 1.044106e-002 4.532398e-002 7.660745e-002 6.752744e-002 9.984135e-002 1.351134e-001 5.077099e-001 2.760618e-001 2.293261e-001 3.865463e-001 3.424881e-001 2.447707e-001 6.414257e-003
<GCONST> 6.427647e+001
<STATE> 3
<MEAN> 39
 -7.956201e+000 4.362986e+000 -3.044528e+000 -9.057641e+000 -7.161189e+000 -4.562880e+000 -1.136872e+001 -2.803737e+000 1.051406e+000 4.422016e+000 7.226432e+000 2.357888e+000 6.558268e+001 -8.477232e-002 8.596475e-002 -2.190477e-002 -4.643786e-002 -3.594736e-002 4.517574e-002 2.371552e-001 2.835824e-001 4.157744e-002 3.431155e-002 -2.819251e-002 3.383762e-002 -8.415510e-002 -1.140198e-002 -9.808180e-003 4.791568e-002 2.646883e-002 2.595790e-002 8.931585e-002 5.808381e-002 5.610059e-002 1.637281e-002 -4.631751e-002 -7.658809e-002 -9.233194e-002 6.940311e-003
<VARIANCE> 39
 1.930369e+000 2.714641e+000 2.552231e+000 5.204461e+000 6.640487e+000 1.032939e+001 1.184388e+001 1.066696e+001 6.550110e+000 1.027529e+001 1.179423e+001 9.421677e+000 6.303813e-001 1.012551e-001 1.730135e-001 3.619913e-001 6.913710e-001 9.155256e-001 1.340887e+000 5.505640e-001 9.266557e-001 7.201487e-001 1.895532e+000 1.122192e+000 1.585396e+000 1.504639e-002 1.904926e-002 3.474842e-002 7.191277e-002 1.504716e-001 2.059070e-001 2.635075e-001 1.163772e-001 1.857116e-001 1.484338e-001 4.501307e-001 2.272054e-001 3.168412e-001 2.730177e-003
<GCONST> 5.440309e+001
<STATE> 4
<MEAN> 39
 -1.071106e+001 4.427782e+000 2.707133e+000 -8.228712e+000 -7.593612e+000 -1.791246e+000 -5.882836e+000 2.656293e+000 1.263879e+000 -5.541338e-001 1.655618e+000 -1.728904e+000 6.541748e+001 -1.845464e-002 -1.158106e-002 4.614683e-002 3.911115e-002 8.549807e-002 -2.478041e-004 8.303940e-002 1.895380e-001 5.163745e-002 -9.208215e-002 -1.100970e-001 -1.336697e-002 -2.079419e-003 -1.834530e-004 -8.222194e-003 -1.970721e-002 -7.846522e-003 1.250116e-002 -1.314078e-002 -3.211277e-002 -3.559432e-002 1.570544e-002 -3.369683e-002 -2.985434e-002 8.003763e-003 -2.231001e-003
<VARIANCE> 39
 9.365569e-001 2.759428e+000 7.220639e+000 3.278997e+000 6.150764e+000 7.332771e+000 1.022313e+001 1.227733e+001 9.085325e+000 1.393933e+001 1.175244e+001 7.359746e+000 7.072253e-001 1.203210e-001 2.552733e-001 7.637514e-001 5.163984e-001 7.594178e-001 9.411712e-001 8.429533e-001 7.257277e-001 1.175943e+000 1.320666e+000 1.230529e+000 7.337238e-001 4.089558e-002 2.584079e-002 5.829724e-002 1.362015e-001 1.214226e-001 1.440177e-001 1.758562e-001 1.893887e-001 1.699746e-001 2.463511e-001 2.854446e-001 2.611816e-001 1.201093e-001 5.245866e-003
<GCONST> 5.620921e+001
<STATE> 5
<MEAN> 39
 -1.046678e+001 -7.541083e-001 -5.543749e+000 -5.799197e+000 -8.484175e+000 -1.047543e+000 -8.588275e-001 6.366064e+000 6.401390e+000 2.330803e+000 9.122869e-001 -2.485683e+000 6.419106e+001 -1.287413e-003 3.132268e-002 -1.626472e-002 4.667857e-002 3.557428e-002 -6.019865e-002 -1.505481e-002 2.302659e-002 3.095112e-002 -4.710416e-002 -2.369192e-002 3.876284e-002 -2.289879e-002 -7.694689e-004 5.088610e-003 4.470898e-003 4.664632e-003 9.598722e-004 -1.156433e-002 -9.888232e-003 -4.013161e-002 -1.496966e-002 3.219621e-003 9.289029e-003 2.310679e-003 8.395517e-004
<VARIANCE> 39
 1.000780e+000 2.348255e+000 4.208322e+000 5.306644e+000 5.568132e+000 1.037980e+001 9.047318e+000 1.141521e+001 1.458439e+001 1.254459e+001 9.926704e+000 1.048797e+001 3.558825e-001 1.195845e-001 2.511501e-001 3.395461e-001 5.152622e-001 6.141217e-001 1.201164e+000 1.169644e+000 1.294969e+000 1.578483e+000 1.452106e+000 1.107574e+000 1.082507e+000 3.176928e-002 2.640265e-002 5.851025e-002 6.662777e-002 1.036217e-001 1.331310e-001 2.695807e-001 2.618819e-001 2.911998e-001 3.216420e-001 2.837922e-001 2.162191e-001 1.984698e-001 6.499004e-003
<GCONST> 5.764956e+001
<STATE> 6
<MEAN> 39
 -1.052684e+001 2.143733e+000 -1.178728e+000 -4.751829e+000 -4.982766e+000 5.220950e-001 -2.670212e+000 4.567865e+000 4.720154e+000 5.561329e-001 9.097953e-001 -1.181052e+000 6.470141e+001 6.180527e-003 -1.912114e-002 4.278687e-002 6.522996e-002 1.788322e-002 1.414088e-001 1.065179e-002 1.288630e-002 -1.715516e-002 -3.922249e-002 -4.295920e-003 -1.106345e-002 7.056719e-003 6.874879e-003 -1.530192e-002 -7.267099e-004 -1.951555e-002 -1.385917e-002 -1.396408e-002 2.628295e-002 2.478792e-002 -1.023911e-002 1.922222e-002 1.231721e-002 -2.416343e-002 1.836361e-002
<VARIANCE> 39
 2.518473e+000 6.517609e+000 1.880124e+001 6.855896e+000 9.371403e+000 1.675824e+001 9.777272e+000 1.643399e+001 1.320083e+001 1.663890e+001 1.586190e+001 1.040579e+001 3.924764e+000 1.987114e-001 7.119423e-001 6.081225e-001 7.354227e-001 7.490052e-001 1.183537e+000 1.216955e+000 2.450327e+000 1.199686e+000 1.773517e+000 1.311319e+000 1.225554e+000 1.185390e-001 3.839559e-002 1.420245e-001 1.397789e-001 1.427409e-001 1.387555e-001 2.398465e-001 2.373603e-001 5.341142e-001 2.043274e-001 3.462312e-001 2.373210e-001 2.390590e-001 2.713624e-002
<GCONST> 7.492559e+001
<STATE> 7
<MEAN> 39
 -1.447142e+001 -9.020454e+000 3.993720e+000 -7.345674e+000 -3.460561e+000 -2.242116e+000 -1.470093e+000 8.230310e-001 2.586589e+000 -1.959074e-001 5.988353e-001 -2.144834e+000 7.578929e+001 -6.760533e-001 -1.974248e+000 6.806289e-001 -2.566902e-001 6.572693e-001 -5.174283e-001 7.836912e-002 -8.850065e-001 -1.068596e-001 6.723059e-001 -2.434258e-001 -3.286414e-001 1.821107e+000 -3.676449e-002 2.314774e-002 3.773793e-002 1.563638e-001 7.241183e-002 9.064367e-002 3.988266e-002 6.215459e-002 1.432927e-001 3.504490e-002 -3.145407e-002 7.240685e-002 -1.060617e-002
<VARIANCE> 39
 1.628182e+001 5.730911e+001 2.500526e+001 1.220998e+001 2.101862e+001 1.489250e+001 1.517158e+001 2.445118e+001 1.491099e+001 2.495290e+001 1.320519e+001 1.636139e+001 5.584782e+001 1.691916e+000 1.845277e+000 3.359153e+000 1.126811e+000 1.463784e+000 8.307822e-001 9.797495e-001 2.592841e+000 1.216530e+000 2.002115e+000 9.719718e-001 2.276335e+000 1.468166e+000 4.148599e-001 6.240682e-001 6.946995e-001 1.513534e-001 2.076970e-001 1.217641e-001 1.749199e-001 6.127120e-001 2.835214e-001 3.033562e-001 1.339158e-001 5.086254e-001 3.969622e-001
<GCONST> 1.013044e+002
<STATE> 8
<MEAN> 39
 -7.530669e+000 -9.965822e+000 4.893762e+000 -4.326853e+000 1.099530e+001 1.103570e+001 2.900274e+000 7.344198e-001 2.231493e+000 5.393555e+000 -1.248350e+000 -5.907420e+000 8.353829e+001 7.549695e-001 6.354121e-001 -2.136199e-001 1.377158e-001 4.665948e-001 5.071668e-001 1.587552e-001 1.833413e-001 -1.194588e-001 -1.911089e-001 3.526375e-002 -1.621624e-001 1.429316e-001 1.047913e-002 7.688220e-003 -4.339691e-002 -6.029096e-002 -9.554569e-002 -4.430994e-002 -6.154255e-003 1.098996e-002 -1.301285e-002 -6.025599e-002 -3.977320e-002 -2.914489e-002 -1.157450e-002
<VARIANCE> 39
 5.470501e+001 2.910384e+001 1.579498e+001 1.093300e+001 4.825756e+001 8.550595e+001 2.296692e+001 1.377679e+001 1.584266e+001 1.926558e+001 1.683782e+001 2.057522e+001 1.279622e+001 1.256827e+000 8.053120e-001 1.146777e+000 1.518431e+000 1.750444e+000 4.818783e+000 1.851247e+000 1.584008e+000 1.447016e+000 9.740341e-001 1.784019e+000 1.331609e+000 2.218962e-001 1.592407e-001 1.596119e-001 2.021636e-001 2.970924e-001 2.623241e-001 4.525879e-001 3.245641e-001 3.653700e-001 2.503718e-001 1.575935e-001 4.120709e-001 2.092070e-001 4.022845e-002
<GCONST> 9.623487e+001
<STATE> 9
<MEAN> 39
 -2.735842e-001 -6.455054e+000 -1.676833e+000 -5.586151e+000 7.595254e+000 4.579401e+000 1.124337e-001 -1.766635e-001 -1.479341e+000 -4.712189e+000 -7.373981e+000 -1.194956e+001 8.744302e+001 -7.821493e-002 -1.297572e-001 6.278981e-002 -1.398432e-001 -3.150407e-001 -2.626683e-001 -1.235781e-001 -2.569416e-001 -6.345893e-002 -1.644786e-001 -1.422142e-001 -2.398846e-001 2.893706e-002 -7.592816e-002 -8.248040e-003 1.016233e-001 2.983250e-003 2.644558e-002 -1.578625e-002 2.063224e-002 -1.423715e-002 -3.525301e-003 2.124426e-002 6.906287e-002 5.776362e-002 -8.141996e-003
<VARIANCE> 39
 4.154852e+000 2.909163e+000 4.181833e+000 9.200332e+000 1.538431e+001 1.206344e+001 9.911268e+000 1.039827e+001 3.282745e+001 2.576171e+001 2.112580e+001 7.522550e+000 5.675279e+000 4.653252e-001 1.788160e-001 9.381409e-001 8.871565e-001 1.089678e+000 1.125232e+000 1.138039e+000 9.711499e-001 1.875238e+000 1.588162e+000 1.882866e+000 7.003090e-001 1.649840e-001 7.993067e-002 3.518245e-002 1.040077e-001 1.934046e-001 2.209917e-001 2.529646e-001 2.647976e-001 2.041476e-001 3.000110e-001 1.967259e-001 2.905197e-001 1.177624e-001 2.202130e-002
<GCONST> 7.282003e+001
<TRANSP> 10
 0.000000e+000 1.000000e+000 0.000000e+000 0.000000e+000 0.000000e+000 0.000000e+000 0.000000e+000 0.000000e+000 0.000000e+000 0.000000e+000
 0.000000e+000 9.555148e-001 4.448513e-002 0.000000e+000 0.000000e+000 0.000000e+000 0.000000e+000 0.000000e+000 0.000000e+000 0.000000e+000
 0.000000e+000 0.000000e+000 9.355117e-001 6.448833e-002 0.000000e+000 0.000000e+000 0.000000e+000 0.000000e+000 0.000000e+000 0.000000e+000
 0.000000e+000 0.000000e+000 0.000000e+000 9.499817e-001 5.001830e-002 0.000000e+000 0.000000e+000 0.000000e+000 0.000000e+000 0.000000e+000
 0.000000e+000 0.000000e+000 0.000000e+000 0.000000e+000 9.793739e-001 2.062606e-002 0.000000e+000 0.000000e+000 0.000000e+000 0.000000e+000
 0.000000e+000 0.000000e+000 0.000000e+000 0.000000e+000 0.000000e+000 9.733610e-001 2.663903e-002 0.000000e+000 0.000000e+000 0.000000e+000
 0.000000e+000 0.000000e+000 0.000000e+000 0.000000e+000 0.000000e+000 0.000000e+000 9.050347e-001 9.496534e-002 0.000000e+000 0.000000e+000
 0.000000e+000 0.000000e+000 0.000000e+000 0.000000e+000 0.000000e+000 0.000000e+000 0.000000e+000 9.554562e-001 4.454380e-002 0.000000e+000
 0.000000e+000 0.000000e+000 0.000000e+000 0.000000e+000 0.000000e+000 0.000000e+000 0.000000e+000 0.000000e+000 9.583680e-001 4.163205e-002
 0.000000e+000 0.000000e+000 0.000000e+000 0.000000e+000 0.000000e+000 0.000000e+000 0.000000e+000 0.000000e+000 0.000000e+000 0.000000e+000
<ENDHMM>
~o
<STREAMINFO> 1 39
<VECSIZE> 39<NULLD><MFCC_D_A_0><DIAGC>
~h "bbb"
<BEGINHMM>
<NUMSTATES> 10
<STATE> 2
<MEAN> 39
 -5.019422e+000 -2.250066e+000 -5.779005e+000 -4.539819e+000 5.571620e+000 5.297172e+000 -1.098634e+001 -6.271962e+000 2.060125e+000 9.640385e-001 -7.195046e+000 -6.254364e+000 7.070631e+001 3.398789e-002 1.166911e-002 3.822029e-002 4.523882e-001 1.437876e-001 9.355357e-002 -7.606673e-002 -8.175614e-002 2.166669e-001 -2.561813e-001 -3.743830e-001 5.945585e-002 -8.599369e-002 -8.344449e-003 -4.280395e-002 1.506851e-002 4.120473e-002 1.555025e-002 6.019233e-004 1.554459e-002 -4.451140e-002 -7.378129e-002 2.703515e-003 8.375788e-002 2.093428e-002 7.777959e-003
<VARIANCE> 39
 2.203510e+000 4.342032e+000 4.064363e+000 2.709664e+001 1.373517e+001 9.506079e+000 1.511096e+001 1.349499e+001 3.676435e+001 2.879782e+001 1.806432e+001 9.116070e+000 3.943227e+000 6.567785e-002 2.836261e-001 3.534053e-001 7.120118e-001 6.710334e-001 8.951707e-001 2.567519e+000 1.522957e+000 1.993174e+000 2.837152e+000 1.847173e+000 9.761583e-001 7.972908e-002 1.354843e-002 5.077350e-002 5.529054e-002 8.231540e-002 1.234062e-001 1.693928e-001 6.588816e-001 2.058828e-001 3.143230e-001 4.918521e-001 3.138634e-001 1.930179e-001 1.504109e-002
<GCONST> 7.014432e+001
<STATE> 3
<MEAN> 39
 -4.291875e+000 -2.396755e+000 -3.311343e+000 -2.307665e+000 4.272789e+000 5.490705e+000 -1.151429e+001 -5.856643e+000 1.325331e+000 -3.561603e+000 -6.362961e+000 -7.206920e+000 7.069443e+001 1.314025e-001 8.813438e-002 6.005659e-002 -3.727491e-001 -4.158950e-001 -1.060033e-002 2.144300e-001 4.679622e-001 -1.429020e-001 -1.212482e-001 3.842385e-001 2.121980e-002 1.244227e-001 3.125405e-002 6.130829e-002 8.636694e-003 -3.287205e-002 1.813078e-002 -3.367179e-002 -8.390211e-002 -5.142433e-002 9.313259e-002 8.868963e-002 -1.514730e-003 4.620223e-002 9.968558e-003
<VARIANCE> 39
 4.608770e+000 4.642315e+000 4.279260e+000 1.915639e+001 2.314050e+001 7.587524e+000 1.067780e+001 2.927860e+001 2.495406e+001 2.362119e+001 1.589844e+001 6.158731e+000 4.727919e+000 1.321089e-001 1.799926e-001 5.466167e-001 1.043795e+000 7.510405e-001 6.741762e-001 8.468168e-001 3.003708e+000 2.973799e+000 1.954124e+000 2.188312e+000 8.911615e-001 3.676315e-002 2.492792e-002 4.874362e-002 1.188250e-001 2.215847e-001 1.873676e-001 1.447164e-001 1.880166e-001 7.019577e-001 5.292256e-001 2.198850e-001 3.722448e-001 1.639379e-001 7.295581e-003
<GCONST> 7.180329e+001
<STATE> 4
<MEAN> 39
 -8.201686e-001 3.527086e+000 -1.096987e+000 -5.029749e+000 -2.590971e+000 -1.309952e+000 -1.417550e+001 -1.683405e+000 6.753571e+000 1.789460e+000 -2.258797e-001 -2.210808e+000 7.130250e+001 4.815956e-002 2.955650e-001 1.224806e-001 -1.245738e-002 -1.090071e-001 -2.489050e-001 1.492384e-002 -2.324249e-001 -6.042744e-002 2.181419e-001 -8.110762e-002 4.249328e-002 -7.639127e-002 -3.594327e-003 -3.871908e-002 -1.384882e-002 2.428650e-002 4.585901e-002 7.817011e-002 4.597814e-002 1.610285e-002 1.787975e-002 -5.481061e-002 -3.777195e-003 -5.916899e-002 -4.435856e-003
<VARIANCE> 39
 6.415020e+000 8.936649e+000 3.584816e+000 7.627055e+000 9.319615e+000 7.220672e+000 2.096428e+001 1.801776e+001 9.592489e+000 1.349599e+001 8.975533e+000 5.864141e+000 4.554467e+000 1.394149e-001 5.061599e-001 4.758089e-001 7.716513e-001 6.052862e-001 3.876437e-001 1.400741e+000 1.447586e+000 1.015762e+000 1.910775e+000 6.285143e-001 6.228474e-001 2.337783e-002 2.276529e-002 7.778691e-002 1.080098e-001 1.264735e-001 1.320862e-001 8.074974e-002 2.659648e-001 3.734347e-001 2.340550e-001 3.799180e-001 8.052186e-002 5.100177e-002 3.872673e-003
<GCONST> 6.014527e+001
<STATE> 5
<MEAN> 39
 -1.130572e+001 4.902573e+000 -1.639305e+000 -5.803940e+000 -8.210844e+000 1.113719e+000 7.507963e-002 3.212354e+000 2.503513e+000 -1.119399e-001 -1.048771e+000 -1.820332e+000 6.206110e+001 2.181739e-002 -4.311273e-002 -1.034613e-002 4.234374e-002 5.545436e-002 5.541553e-002 -3.022834e-002 -1.000930e-001 7.698842e-003 -6.734409e-003 1.392783e-002 -1.703503e-002 2.433373e-002 1.939789e-003 3.732984e-003 8.391431e-003 -4.156107e-003 -2.298203e-003 8.243089e-003 -6.083814e-003 6.425524e-003 1.566218e-002 -2.461570e-003 -5.146163e-003 -1.644039e-002 3.869285e-003
<VARIANCE> 39
 2.120440e+000 2.604844e+000 4.134861e+000 4.259658e+000 8.459702e+000 8.718172e+000 8.505662e+000 9.944235e+000 8.150392e+000 1.322390e+001 1.158065e+001 1.112649e+001 1.350610e+000 9.832987e-002 1.821072e-001 3.265474e-001 4.708500e-001 9.163390e-001 1.002242e+000 7.811915e-001 9.855013e-001 8.367350e-001 1.516747e+000 1.316164e+000 1.097257e+000 3.041836e-002 2.042248e-002 3.634309e-002 6.133745e-002 8.711608e-002 1.803224e-001 1.959451e-001 1.679381e-001 1.982008e-001 1.823406e-001 3.025886e-001 2.823812e-001 2.107790e-001 5.277429e-003
<GCONST> 5.555777e+001
<STATE> 6
<MEAN> 39
 -2.934266e+000 4.200388e+000 2.103147e-001 -7.793219e+000 -5.471406e+000 1.550128e+000 -9.022635e+000 -5.933758e+000 4.382083e+000 5.243290e+000 2.427442e+000 -1.669901e+000 7.024892e+001 2.455498e-002 2.093455e-002 -3.266111e-003 -2.074777e-001 -1.553352e-001 -6.096783e-002 3.684469e-002 3.029889e-002 -7.364822e-002 6.979101e-002 1.271143e-001 1.590621e-001 7.608527e-002 -7.826780e-003 3.139743e-003 -1.814880e-002 -3.752321e-003 -1.447895e-002 -4.948280e-002 -6.840259e-003 -3.319898e-003 -3.753801e-002 -6.041567e-003 -4.154791e-003 4.285102e-002 -5.272030e-003
<VARIANCE> 39
 1.534921e+001 3.283963e+000 1.236382e+001 2.613206e+001 1.080905e+001 1.095371e+001 2.270376e+001 3.531739e+001 1.495365e+001 1.797883e+001 1.447229e+001 1.795805e+001 9.703390e+000 1.255300e-001 2.872967e-001 5.367092e-001 5.543366e-001 9.348887e-001 9.849606e-001 1.107259e+000 1.068489e+000 1.424653e+000 1.472614e+000 1.568776e+000 1.368061e+000 3.807156e-002 1.786575e-002 5.350495e-002 7.677370e-002 1.010308e-001 1.695147e-001 1.749240e-001 2.086533e-001 1.777566e-001 2.314169e-001 2.952274e-001 2.897701e-001 2.514974e-001 6.688964e-003
<GCONST> 7.111588e+001
<STATE> 7
<MEAN> 39
 -2.577819e+000 4.858639e+000 -3.009604e+000 -1.045324e+001 -2.752394e+000 1.976932e+000 -5.878570e+000 -5.771390e+000 -1.779558e+000 2.145808e+000 -5.749407e-001 -3.025296e+000 7.053400e+001 1.395195e-001 1.859066e-002 -1.121591e-001 1.307795e-001 3.404308e-001 9.241210e-002 -6.132754e-002 -1.441006e-001 -6.755792e-002 -7.846084e-002 -1.764124e-001 -9.208356e-002 4.359284e-002 -1.987291e-002 3.020682e-003 4.916864e-002 -2.405644e-002 -2.404713e-002 -8.532076e-002 -4.693207e-002 -3.835958e-002 2.590549e-002 -2.634485e-002 7.278599e-003 -4.148525e-002 3.067294e-002
<VARIANCE> 39
 1.482198e+001 2.827424e+000 2.800459e+001 5.162753e+001 1.834384e+001 1.421990e+001 2.907398e+001 6.243328e+001 2.055996e+001 9.842425e+000 7.371387e+000 1.673013e+001 1.152046e+001 8.096297e-001 2.275543e-001 6.650648e-001 5.145333e-001 1.107868e+000 1.313831e+000 2.413813e+000 2.646306e+000 1.084822e+000 9.745325e-001 6.772025e-001 1.219585e+000 2.927696e-001 2.009021e-001 3.262937e-002 1.541111e-001 7.787299e-002 2.866283e-001 2.522591e-001 3.904044e-001 5.437149e-001 2.029902e-001 1.591408e-001 1.333246e-001 2.807539e-001 6.772028e-002
<GCONST> 8.339062e+001
<STATE> 8
<MEAN> 39
 -1.247838e+001 -6.425545e+000 6.876776e+000 -9.481729e+000 4.779134e-002 -9.808710e+000 -5.426499e+000 -6.365841e+000 3.245014e-001 -3.267601e+000 -2.979798e+000 -2.411933e+000 8.175459e+001 -1.052553e+000 -8.747723e-001 1.336759e+000 8.934632e-001 1.495732e-001 -6.715605e-001 3.073005e-001 3.213723e-001 3.190751e-001 -7.540158e-001 -3.025129e-001 2.921340e-002 6.614957e-001 6.400343e-002 1.853049e-002 -4.019068e-002 7.605404e-002 9.149933e-002 4.151616e-001 2.780489e-001 1.733445e-001 1.011428e-001 1.294086e-001 5.566305e-002 1.619466e-001 -1.363346e-001
<VARIANCE> 39
 3.431215e+001 5.178220e+001 5.033477e+001 4.564296e+001 9.805436e+000 2.891950e+001 4.964763e+000 1.340901e+001 1.649482e+001 2.934964e+001 6.594652e+000 1.309580e+001 2.475499e+001 1.240542e+000 1.689300e+000 2.929890e+000 1.539294e+000 1.534122e+000 4.631329e+000 6.029609e-001 7.860466e-001 3.571704e+000 2.773210e+000 2.994576e-001 1.841692e+000 9.784443e-001 2.752151e-001 2.698293e-001 5.866905e-001 2.594553e-001 1.470152e-001 2.935220e-001 2.315179e-001 1.884163e-001 1.025845e+000 7.558975e-001 8.531354e-002 4.017452e-001 7.074373e-002
<GCONST> 9.869722e+001
<STATE> 9
<MEAN> 39
 -8.713767e+000 -5.179367e-001 5.518712e+000 -2.825409e+000 6.724271e-001 4.615102e+000 -1.302515e+000 2.651903e+000 5.997041e+000 -3.345202e-001 -1.660599e+000 -8.832180e-001 7.344791e+001 -1.128700e-001 -1.316949e-001 7.443605e-003 -6.744230e-002 4.162971e-002 1.552823e-001 9.313025e-002 1.675793e-001 1.600082e-001 -2.136216e-003 3.763500e-002 3.893496e-003 1.485799e-001 1.293711e-003 -1.527727e-002 -6.231954e-003 -3.983006e-003 -9.035929e-003 -3.760035e-002 -1.898655e-002 -5.051637e-002 -3.070527e-002 -1.559126e-002 -1.705754e-002 -2.575935e-002 1.765875e-002
<VARIANCE> 39
 3.220625e+001 3.241080e+001 1.760212e+001 9.675813e+000 7.664961e+001 3.985633e+001 2.353224e+001 1.451935e+001 2.062231e+001 1.743739e+001 2.373199e+001 1.554285e+001 6.001154e+001 7.322388e-001 1.007432e+000 6.865306e-001 8.776605e-001 8.772694e-001 2.299496e+000 2.010885e+000 1.015046e+000 1.607220e+000 1.314324e+000 1.496908e+000 1.104013e+000 2.674991e-001 7.220142e-002 1.304237e-001 8.335447e-002 1.768891e-001 1.524929e-001 3.841446e-001 3.365394e-001 1.673470e-001 2.583796e-001 2.250017e-001 2.942537e-001 2.367265e-001 2.316080e-002
<GCONST> 9.017912e+001
<TRANSP> 10
 0.000000e+000 1.000000e+000 0.000000e+000 0.000000e+000 0.000000e+000 0.000000e+000 0.000000e+000 0.000000e+000 0.000000e+000 0.000000e+000
 0.000000e+000 9.260685e-001 7.393149e-002 0.000000e+000 0.000000e+000 0.000000e+000 0.000000e+000 0.000000e+000 0.000000e+000 0.000000e+000
 0.000000e+000 0.000000e+000 9.229190e-001 7.708104e-002 0.000000e+000 0.000000e+000 0.000000e+000 0.000000e+000 0.000000e+000 0.000000e+000
 0.000000e+000 0.000000e+000 0.000000e+000 9.258991e-001 7.410096e-002 0.000000e+000 0.000000e+000 0.000000e+000 0.000000e+000 0.000000e+000
 0.000000e+000 0.000000e+000 0.000000e+000 0.000000e+000 9.813111e-001 1.868893e-002 0.000000e+000 0.000000e+000 0.000000e+000 0.000000e+000
 0.000000e+000 0.000000e+000 0.000000e+000 0.000000e+000 0.000000e+000 9.722499e-001 2.775009e-002 0.000000e+000 0.000000e+000 0.000000e+000
 0.000000e+000 0.000000e+000 0.000000e+000 0.000000e+000 0.000000e+000 0.000000e+000 9.564484e-001 4.355162e-002 0.000000e+000 0.000000e+000
 0.000000e+000 0.000000e+000 0.000000e+000 0.000000e+000 0.000000e+000 0.000000e+000 0.000000e+000 8.750206e-001 1.249793e-001 0.000000e+000
 0.000000e+000 0.000000e+000 0.000000e+000 0.000000e+000 0.000000e+000 0.000000e+000 0.000000e+000 0.000000e+000 9.753083e-001 2.469172e-002
 0.000000e+000 0.000000e+000 0.000000e+000 0.000000e+000 0.000000e+000 0.000000e+000 0.000000e+000 0.000000e+000 0.000000e+000 0.000000e+000
<ENDHMM>
~o
<STREAMINFO> 1 39
<VECSIZE> 39<NULLD><MFCC_D_A_0><DIAGC>
~h "ccc"
<BEGINHMM>
<NUMSTATES> 10
<STATE> 2
<MEAN> 39
 -1.125626e+001 4.804432e+000 -3.175069e+000 -5.919138e+000 -7.974430e+000 2.141818e-001 -9.419241e-001 2.716215e+000 3.514649e+000 5.674291e-001 -3.981987e-001 -1.150668e+000 6.181992e+001 -4.029300e-002 -5.233629e-002 -1.919239e-002 1.989392e-002 -2.052980e-002 1.176159e-002 1.102667e-001 -1.034024e-002 -2.241979e-002 6.329193e-002 -1.100173e-002 3.180196e-002 -1.987434e-002 -4.200249e-003 -3.282227e-003 -7.299533e-004 -8.003473e-003 3.754227e-003 3.688305e-003 -7.663146e-003 2.109896e-002 2.244732e-002 -7.891929e-003 1.466035e-002 -1.031544e-002 1.319429e-003
<VARIANCE> 39
 1.044901e+000 1.703433e+000 3.784897e+000 5.014075e+000 6.345619e+000 6.403827e+000 8.493795e+000 7.377848e+000 1.200090e+001 7.589236e+000 8.439329e+000 8.188969e+000 2.894814e-001 1.097564e-001 2.403100e-001 3.519851e-001 6.279394e-001 9.417071e-001 9.742269e-001 8.582618e-001 7.959943e-001 1.410623e+000 6.683674e-001 1.112163e+000 8.212203e-001 1.990329e-002 2.456429e-002 5.068792e-002 6.193389e-002 1.267566e-001 2.085565e-001 2.048670e-001 1.751818e-001 1.605620e-001 3.110175e-001 1.222024e-001 2.423045e-001 1.388863e-001 4.022781e-003
<GCONST> 5.043183e+001
<STATE> 3
<MEAN> 39
 -1.132183e+001 4.147607e+000 -4.033424e+000 -5.257028e+000 -5.812291e+000 1.970754e+000 -3.812169e-001 3.690099e+000 5.772941e+000 2.284877e+000 -1.097744e+000 -2.784524e+000 6.186016e+001 9.541493e-002 1.012925e-001 2.200012e-002 1.367879e-002 -3.670865e-003 -1.639734e-002 3.703393e-002 6.154875e-002 -5.849313e-002 -3.612054e-002 1.132920e-001 9.955381e-002 3.086585e-002 2.226081e-002 2.865476e-002 -2.878288e-002 -1.627772e-002 -4.430427e-002 -8.211354e-002 -2.716800e-002 -5.463959e-002 -5.995385e-002 2.452899e-002 6.836247e-002 7.970570e-002 5.303769e-003
<VARIANCE> 39
 9.367569e-001 1.980231e+000 2.081607e+000 6.453239e+000 7.074229e+000 6.707410e+000 6.519945e+000 1.154573e+001 1.214033e+001 1.683303e+001 1.005213e+001 1.087211e+001 1.894239e-001 6.472681e-002 2.373731e-001 1.843691e-001 9.187461e-001 6.832460e-001 1.069781e+000 7.366490e-001 1.419887e+000 1.553562e+000 1.672904e+000 1.139768e+000 1.459869e+000 3.699482e-002 1.453298e-002 6.145098e-002 4.054347e-002 2.257307e-001 1.514780e-001 2.072736e-001 1.353710e-001 2.646877e-001 2.838052e-001 2.897863e-001 2.484214e-001 3.559148e-001 7.427918e-003
<GCONST> 5.504042e+001
<STATE> 4
<MEAN> 39
 -1.082849e+001 5.354692e+000 -2.869425e+000 -7.110094e+000 -9.692899e+000 -8.371586e-001 -1.943292e+000 3.438090e+000 4.562399e+000 1.006492e+000 -6.842688e-001 -2.152000e+000 6.205628e+001 -1.757289e-002 -2.423418e-002 -4.852153e-002 -6.042359e-002 -4.443363e-002 -4.800613e-002 -2.273800e-002 -3.099876e-002 -3.076685e-002 -1.758936e-002 4.099364e-002 -3.926172e-002 -1.042398e-002 -1.466592e-002 -3.606945e-003 8.723531e-003 4.196540e-003 1.743591e-002 1.996772e-002 9.898853e-003 -7.700194e-003 -1.039257e-002 -7.168950e-002 -5.456683e-002 -1.191369e-002 -1.249436e-002
<VARIANCE> 39
 5.131832e-001 1.831187e+000 3.256491e+000 1.146634e+001 1.502586e+001 7.625317e+000 1.359133e+001 8.183735e+000 1.253131e+001 1.574558e+001 1.167701e+001 1.370472e+001 2.865498e-001 6.648809e-002 1.723072e-001 3.988816e-001 5.942205e-001 5.004641e-001 5.292248e-001 1.019001e+000 7.070302e-001 7.805367e-001 9.079385e-001 1.133884e+000 1.780106e+000 2.335842e-002 1.295878e-002 3.003624e-002 7.414061e-002 1.182841e-001 8.466333e-002 1.072852e-001 1.984509e-001 1.040612e-001 1.558579e-001 2.010498e-001 2.486655e-001 3.695590e-001 4.679013e-003
<GCONST> 5.045030e+001
<STATE> 5
<MEAN> 39
 -1.173231e+001 5.135276e+000 -4.196311e+000 -6.451574e+000 -7.878126e+000 6.753919e-001 3.644975e-001 3.714107e+000 2.208188e+000 -1.058035e+000 -1.309225e+000 -2.428061e+000 6.130215e+001 -2.350763e-002 -8.182470e-003 -1.234697e-002 -2.781093e-002 1.313775e-002 5.872425e-002 -6.588892e-003 2.789854e-002 3.423095e-002 7.462384e-005 -2.835762e-002 5.812988e-002 -8.012037e-003 9.877156e-003 -6.137758e-003 1.317052e-002 -5.633663e-003 -1.707754e-002 -1.196245e-003 1.643061e-002 9.803037e-003 6.269952e-003 4.080773e-002 3.860176e-002 4.155615e-004 1.291858e-002
<VARIANCE> 39
 7.451532e-001 3.282960e+000 2.825005e+000 6.392841e+000 8.431770e+000 7.762384e+000 9.853382e+000 1.155449e+001 1.528834e+001 1.218657e+001 9.513147e+000 9.788033e+000 1.716491e-001 9.307034e-002 3.038085e-001 3.245032e-001 3.448941e-001 7.180894e-001 9.750102e-001 1.511864e+000 1.530689e+000 1.248767e+000 1.380929e+000 1.138978e+000 1.049721e+000 2.153852e-002 2.238332e-002 6.665152e-002 7.393357e-002 6.466088e-002 1.562196e-001 1.986310e-001 3.459145e-001 3.570242e-001 2.826725e-001 2.999747e-001 2.162630e-001 2.097006e-001 4.417922e-003
<GCONST> 5.559498e+001
<STATE> 6
<MEAN> 39
 -1.125458e+001 3.849246e+000 -2.258939e+000 -7.450255e+000 -1.093817e+001 2.780615e-001 -9.192743e-001 3.133464e+000 3.270694e+000 -4.553975e-001 -3.710773e-001 -1.001889e+000 6.253250e+001 2.296401e-002 1.060025e-002 8.911354e-002 -1.118972e-002 -1.129114e-002 -1.142672e-001 -6.856273e-002 6.663422e-003 -1.220203e-001 -1.537436e-002 -6.487733e-002 -1.048648e-001 3.186627e-002 -1.506069e-002 -3.192149e-003 5.043146e-003 -3.168182e-003 2.031657e-002 -3.141178e-002 -3.735494e-002 -1.973490e-002 -3.381253e-002 -1.647223e-003 -5.135359e-002 -3.123385e-002 -1.660913e-003
<VARIANCE> 39
 2.645629e+000 2.911687e+000 7.639657e+000 7.388904e+000 1.070103e+001 7.573164e+000 1.328446e+001 1.060382e+001 1.038611e+001 1.388846e+001 9.879903e+000 1.121607e+001 1.025759e+000 2.339698e-001 2.840444e-001 5.427680e-001 1.003690e+000 1.277216e+000 9.085779e-001 1.341772e+000 1.101352e+000 1.752005e+000 1.527337e+000 1.094257e+000 1.110647e+000 1.074601e-001 4.545525e-002 5.375350e-002 1.142995e-001 2.219997e-001 2.331868e-001 1.501408e-001 2.864780e-001 2.199808e-001 3.861206e-001 3.294824e-001 2.138063e-001 1.976505e-001 2.176470e-002
<GCONST> 6.811115e+001
<STATE> 7
<MEAN> 39
 -1.765709e+001 -7.586357e+000 3.340935e+000 -9.837707e+000 5.982872e+000 -5.486632e+000 -4.946839e+000 3.056692e+000 5.003758e+000 3.408557e+000 -2.195770e+000 -5.003665e+000 7.101877e+001 1.152139e-001 -6.244379e-001 5.982271e-001 5.182526e-001 1.337051e+000 8.035355e-001 7.318365e-002 -2.461658e-001 6.127816e-001 2.694009e-001 6.623606e-003 1.769778e-003 6.944271e-001 1.983441e-001 1.671358e-001 6.757271e-002 2.331104e-001 7.787503e-002 2.709709e-001 1.537964e-001 5.932699e-002 7.857934e-002 -1.016777e-001 2.572717e-002 -1.341689e-003 9.015792e-003
<VARIANCE> 39
 1.169348e+001 4.312013e+001 1.150081e+001 5.551352e+000 6.683637e+001 3.328928e+001 9.112460e+000 1.192328e+001 4.238297e+001 1.236246e+001 1.320059e+001 1.264280e+001 2.409596e+001 1.370377e+000 2.135455e+000 1.782246e+000 1.836888e+000 1.936350e+000 2.787066e+000 2.117651e+000 1.349415e+000 4.044719e+000 2.344895e+000 1.389250e+000 1.751414e+000 9.482501e-001 4.070600e-002 1.699358e-001 3.099890e-001 2.151749e-001 2.953851e-001 1.123216e-001 3.891409e-001 3.076765e-001 1.074331e+000 3.783964e-001 2.143695e-001 3.660592e-001 1.324807e-001
<GCONST> 9.841826e+001
<STATE> 8
<MEAN> 39
 -3.689998e+000 -5.841559e+000 2.942868e+000 -2.736921e+000 1.684765e+001 1.387093e+001 -2.779750e+000 -6.142624e-001 1.150836e+001 6.525681e+000 -5.834613e+000 -7.551485e+000 8.305356e+001 -2.030599e-002 -1.596386e-002 3.208000e-002 -1.207483e-001 -1.883239e-001 -8.232901e-002 -6.035811e-002 -2.706070e-001 2.108540e-001 -1.599723e-001 -6.032357e-002 -2.254202e-001 1.964594e-001 -9.060053e-002 -8.266045e-002 -6.368206e-002 -3.937626e-002 -5.828756e-002 -1.040915e-001 -1.038129e-001 -6.198313e-002 7.173666e-003 -2.243011e-002 4.172612e-002 -5.648371e-004 3.765433e-003
<VARIANCE> 39
 6.963739e+000 7.309766e+000 8.531118e+000 1.858912e+001 3.452250e+001 3.097930e+001 1.163751e+001 1.339559e+001 1.825880e+001 2.385294e+001 2.110490e+001 7.017336e+000 1.930358e+001 1.058545e+000 8.116125e-001 7.470970e-001 1.655444e+000 6.812955e-001 2.131206e+000 2.176991e+000 9.587834e-001 1.213248e+000 8.512868e-001 2.158264e+000 7.455563e-001 2.801445e-001 6.363194e-002 1.239114e-001 1.650808e-001 3.905105e-001 1.656250e-001 2.790888e-001 5.920302e-001 1.747662e-001 2.214528e-001 9.493037e-002 3.551600e-001 1.337314e-001 2.887052e-002
<GCONST> 8.375582e+001
<STATE> 9
<MEAN> 39
 -7.138763e+000 8.935184e+000 5.884893e-001 -3.875161e+000 -1.007930e+001 -6.250024e+000 -1.024742e+001 -9.250943e+000 -5.932118e+000 -7.307769e+000 -7.681334e+000 -7.560487e+000 6.463657e+001 -3.202882e-002 -6.093071e-002 -2.976616e-001 -1.586502e-003 2.080126e-001 -1.849840e-001 -3.528225e-001 -5.651456e-001 -1.670498e-001 1.290828e-002 1.735909e-001 1.116515e-001 5.343705e-002 8.246721e-003 1.781837e-002 -1.398144e-002 -5.164475e-002 1.454181e-003 9.999093e-002 9.036618e-002 6.281889e-002 2.760478e-002 4.729289e-002 8.418350e-002 7.924227e-002 -1.131326e-002
<VARIANCE> 39
 2.700084e+000 2.005113e+001 7.203328e+000 3.208655e+000 1.945879e+001 1.599522e+001 8.243469e+000 1.044916e+001 4.295765e+001 1.023993e+001 8.309001e+000 7.704050e+000 1.659834e+001 2.287725e-001 4.291786e-001 5.652496e-001 3.624526e-001 7.937407e-001 1.277589e+000 1.413909e+000 1.527319e+000 6.091104e-001 6.434343e-001 9.765929e-001 9.263052e-001 3.638150e-002 1.259292e-002 4.101714e-002 1.355668e-001 7.161866e-002 1.258423e-001 2.193727e-001 2.091908e-001 2.610647e-001 1.090097e-001 1.115251e-001 2.095877e-001 1.942927e-001 4.272654e-003
<GCONST> 6.282096e+001
<TRANSP> 10
 0.000000e+000 1.000000e+000 0.000000e+000 0.000000e+000 0.000000e+000 0.000000e+000 0.000000e+000 0.000000e+000 0.000000e+000 0.000000e+000
 0.000000e+000 9.694622e-001 3.053784e-002 0.000000e+000 0.000000e+000 0.000000e+000 0.000000e+000 0.000000e+000 0.000000e+000 0.000000e+000
 0.000000e+000 0.000000e+000 9.272930e-001 7.270705e-002 0.000000e+000 0.000000e+000 0.000000e+000 0.000000e+000 0.000000e+000 0.000000e+000
 0.000000e+000 0.000000e+000 0.000000e+000 9.669518e-001 3.304813e-002 0.000000e+000 0.000000e+000 0.000000e+000 0.000000e+000 0.000000e+000
 0.000000e+000 0.000000e+000 0.000000e+000 0.000000e+000 9.723186e-001 2.768145e-002 0.000000e+000 0.000000e+000 0.000000e+000 0.000000e+000
 0.000000e+000 0.000000e+000 0.000000e+000 0.000000e+000 0.000000e+000 9.778345e-001 2.216557e-002 0.000000e+000 0.000000e+000 0.000000e+000
 0.000000e+000 0.000000e+000 0.000000e+000 0.000000e+000 0.000000e+000 0.000000e+000 8.823600e-001 1.176400e-001 0.000000e+000 0.000000e+000
 0.000000e+000 0.000000e+000 0.000000e+000 0.000000e+000 0.000000e+000 0.000000e+000 0.000000e+000 9.555564e-001 4.444360e-002 0.000000e+000
 0.000000e+000 0.000000e+000 0.000000e+000 0.000000e+000 0.000000e+000 0.000000e+000 0.000000e+000 0.000000e+000 9.166651e-001 8.333484e-002
 0.000000e+000 0.000000e+000 0.000000e+000 0.000000e+000 0.000000e+000 0.000000e+000 0.000000e+000 0.000000e+000 0.000000e+000 0.000000e+000
<ENDHMM>
