~o
<STREAMINFO> 1 39
<VECSIZE> 39<NULLD><MFCC_D_A_0><DIAGC>
~h "aaa"
<BEGINHMM>
<NUMSTATES> 10
<STATE> 2
<MEAN> 39
 -1.014992e+001 8.606743e-001 -8.873520e-001 -8.131638e+000 -9.013885e+000 1.036783e-001 -3.544614e+000 1.987829e+000 2.786264e+000 1.537760e+000 1.714146e+000 -1.601744e+000 6.553638e+001 4.979011e-002 -3.453753e-002 -1.021582e-001 2.051999e-002 1.950006e-002 -3.991890e-002 -1.463285e-001 -2.525184e-001 1.260796e-001 2.326993e-001 2.407245e-001 4.850246e-002 2.105077e-002 8.801085e-003 -1.458775e-002 -3.004973e-002 -4.137013e-002 8.986033e-004 -5.084266e-002 -9.003939e-002 1.016267e-002 -5.454416e-002 5.805340e-002 7.778902e-002 5.419599e-002 1.454430e-003
<VARIANCE> 39
 2.084091e+000 1.062752e+001 4.339863e+000 6.991101e+000 5.590431e+000 8.369748e+000 2.906021e+001 1.443338e+001 1.273825e+001 1.445270e+001 2.481749e+001 1.369845e+001 6.618211e+000 5.668626e-002 3.711958e-001 3.423499e-001 4.015801e-001 5.748528e-001 7.362553e-001 2.296735e+000 1.108045e+000 1.251589e+000 1.717344e+000 1.580548e+000 1.063352e+000 4.502714e-002 1.044185e-002 4.532345e-002 7.661003e-002 6.752634e-002 9.984411e-002 1.351135e-001 5.077069e-001 2.760836e-001 2.293101e-001 3.865825e-001 3.425170e-001 2.447828e-001 6.414789e-003
<GCONST> 6.427698e+001
<STATE> 3
<MEAN> 39
 -7.956162e+000 4.363047e+000 -3.044549e+000 -9.057647e+000 -7.161152e+000 -4.562941e+000 -1.136881e+001 -2.803758e+000 1.051420e+000 4.422029e+000 7.226435e+000 2.357900e+000 6.558269e+001 -8.477331e-002 8.596579e-002 -2.189364e-002 -4.643377e-002 -3.595240e-002 4.517911e-002 2.371615e-001 2.835715e-001 4.158384e-002 3.429665e-002 -2.820461e-002 3.382788e-002 -8.415349e-002 -1.140267e-002 -9.807122e-003 4.791986e-002 2.646814e-002 2.595495e-002 8.931120e-002 5.808111e-002 5.609765e-002 1.636748e-002 -4.631990e-002 -7.658193e-002 -9.232858e-002 6.940813e-003
<VARIANCE> 39
 1.930256e+000 2.714380e+000 2.552232e+000 5.204530e+000 6.640409e+000 1.032923e+001 1.184307e+001 1.066700e+001 6.550181e+000 1.027541e+001 1.179435e+001 9.421764e+000 6.303772e-001 1.012560e-001 1.730149e-001 3.619860e-001 6.913791e-001 9.155350e-001 1.340902e+000 5.505645e-001 9.266563e-001 7.201527e-001 1.895539e+000 1.122188e+000 1.585407e+000 1.504636e-002 1.904948e-002 3.474879e-002 7.191228e-002 1.504732e-001 2.059079e-001 2.635072e-001 1.163781e-001 1.857133e-001 1.484322e-001 4.501362e-001 2.272016e-001 3.168420e-001 2.730193e-003
<GCONST> 5.440300e+001
<STATE> 4
<MEAN> 39
 -1.071106e+001 4.427831e+000 2.707203e+000 -8.228698e+000 -7.593580e+000 -1.791263e+000 -5.882892e+000 2.656264e+000 1.263872e+000 -5.542107e-001 1.655618e+000 -1.728892e+000 6.541748e+001 -1.845459e-002 -1.157908e-002 4.615605e-002 3.911348e-002 8.549333e-002 -2.570039e-004 8.304647e-002 1.895310e-001 5.163229e-002 -9.208545e-002 -1.100921e-001 -1.336558e-002 -2.077526e-003 -1.829561e-004 -8.221362e-003 -1.970960e-002 -7.849026e-003 1.249947e-002 -1.314383e-002 -3.211262e-002 -3.559421e-002 1.570091e-002 -3.369125e-002 -2.984889e-002 8.007245e-003 -2.231291e-003
<VARIANCE> 39
 9.365644e-001 2.759167e+000 7.220112e+000 3.279002e+000 6.150700e+000 7.332801e+000 1.022285e+001 1.227732e+001 9.085395e+000 1.393873e+001 1.175254e+001 7.359796e+000 7.072309e-001 1.203221e-001 2.552751e-001 7.637477e-001 5.164022e-001 7.594215e-001 9.411694e-001 8.429547e-001 7.257280e-001 1.175950e+000 1.320676e+000 1.230536e+000 7.337298e-001 4.089548e-002 2.584098e-002 5.829765e-002 1.362020e-001 1.214228e-001 1.440185e-001 1.758566e-001 1.893903e-001 1.699761e-001 2.463508e-001 2.854432e-001 2.611803e-001 1.201089e-001 5.245901e-003
<GCONST> 5.620910e+001
<STATE> 5
<MEAN> 39
 -1.046678e+001 -7.540925e-001 -5.543726e+000 -5.799202e+000 -8.484166e+000 -1.047549e+000 -8.588387e-001 6.366075e+000 6.401389e+000 2.330775e+000 9.122871e-001 -2.485656e+000 6.419106e+001 -1.287642e-003 3.132318e-002 -1.626222e-002 4.667615e-002 3.557562e-002 -6.020121e-002 -1.505973e-002 2.302464e-002 3.094850e-002 -4.710588e-002 -2.369169e-002 3.876426e-002 -2.289861e-002 -7.690356e-004 5.088707e-003 4.471144e-003 4.665109e-003 9.604158e-004 -1.156364e-002 -9.888859e-003 -4.013564e-002 -1.497254e-002 3.218665e-003 9.288744e-003 2.308920e-003 8.399914e-004
<VARIANCE> 39
 1.000775e+000 2.348312e+000 4.208461e+000 5.306621e+000 5.568112e+000 1.037975e+001 9.047296e+000 1.141516e+001 1.458429e+001 1.254473e+001 9.926640e+000 1.048809e+001 3.558841e-001 1.195838e-001 2.511486e-001 3.395461e-001 5.152605e-001 6.141183e-001 1.201158e+000 1.169642e+000 1.294963e+000 1.578475e+000 1.452098e+000 1.107567e+000 1.082500e+000 3.176913e-002 2.640253e-002 5.850998e-002 6.662735e-002 1.036210e-001 1.331303e-001 2.695791e-001 2.618803e-001 2.912024e-001 3.216428e-001 2.837906e-001 2.162178e-001 1.984693e-001 6.499012e-003
<GCONST> 5.764954e+001
<STATE> 6
<MEAN> 39
 -1.052677e+001 2.143820e+000 -1.178162e+000 -4.751935e+000 -4.982636e+000 5.224457e-001 -2.670267e+000 4.567686e+000 4.720078e+000 5.563082e-001 9.100804e-001 -1.181095e+000 6.470164e+001 6.177899e-003 -1.912516e-002 4.278090e-002 6.523223e-002 1.788313e-002 1.414088e-001 1.065512e-002 1.287011e-002 -1.715316e-002 -3.921539e-002 -4.288726e-003 -1.107298e-002 7.055636e-003 6.872168e-003 -1.530222e-002 -7.322295e-004 -1.951168e-002 -1.386106e-002 -1.396474e-002 2.628195e-002 2.478275e-002 -1.023891e-002 1.921567e-002 1.231407e-002 -2.416407e-002 1.836075e-002
<VARIANCE> 39
 2.518585e+000 6.517842e+000 1.879930e+001 6.855778e+000 9.371531e+000 1.675783e+001 9.777253e+000 1.643448e+001 1.320075e+001 1.663864e+001 1.586101e+001 1.040569e+001 3.924588e+000 1.987180e-001 7.119628e-001 6.081217e-001 7.354066e-001 7.490273e-001 1.183599e+000 1.216967e+000 2.450434e+000 1.199738e+000 1.773542e+000 1.311259e+000 1.225546e+000 1.185461e-001 3.839654e-002 1.420287e-001 1.397824e-001 1.427380e-001 1.387579e-001 2.398610e-001 2.373652e-001 5.341374e-001 2.043358e-001 3.462373e-001 2.373082e-001 2.390513e-001 2.713612e-002
<GCONST> 7.492584e+001
<STATE> 7
<MEAN> 39
 -1.447142e+001 -9.020266e+000 3.993848e+000 -7.345887e+000 -3.461183e+000 -2.242234e+000 -1.469835e+000 8.229650e-001 2.586452e+000 -1.965106e-001 5.988979e-001 -2.144770e+000 7.578953e+001 -6.760299e-001 -1.974194e+000 6.805206e-001 -2.567106e-001 6.571813e-001 -5.175462e-001 7.835968e-002 -8.848984e-001 -1.069072e-001 6.721736e-001 -2.434579e-001 -3.285712e-001 1.821078e+000 -3.677234e-002 2.314899e-002 3.776333e-002 1.563725e-001 7.244138e-002 9.063708e-002 3.987420e-002 6.217727e-002 1.432970e-001 3.507279e-002 -3.143318e-002 7.242277e-002 -1.060610e-002
<VARIANCE> 39
 1.628028e+001 5.730506e+001 2.500385e+001 1.220999e+001 2.101617e+001 1.489308e+001 1.517147e+001 2.444851e+001 1.490962e+001 2.495057e+001 1.320486e+001 1.636057e+001 5.584780e+001 1.691789e+000 1.844991e+000 3.359066e+000 1.126785e+000 1.463822e+000 8.307242e-001 9.797300e-001 2.592622e+000 1.216375e+000 2.002165e+000 9.719644e-001 2.276344e+000 1.468099e+000 4.148255e-001 6.239935e-001 6.946997e-001 1.513562e-001 2.076828e-001 1.217620e-001 1.749102e-001 6.126210e-001 2.835057e-001 3.033701e-001 1.339226e-001 5.086252e-001 3.969433e-001
<GCONST> 1.013026e+002
<STATE> 8
<MEAN> 39
 -7.531038e+000 -9.966035e+000 4.894001e+000 -4.326994e+000 1.099460e+001 1.103530e+001 2.900656e+000 7.346519e-001 2.231723e+000 5.393160e+000 -1.248523e+000 -5.907082e+000 8.353878e+001 7.549427e-001 6.353745e-001 -2.136023e-001 1.377295e-001 4.665801e-001 5.071965e-001 1.587768e-001 1.833414e-001 -1.193925e-001 -1.910433e-001 3.525985e-002 -1.621808e-001 1.429420e-001 1.048593e-002 7.692517e-003 -4.340621e-002 -6.029944e-002 -9.555394e-002 -4.430863e-002 -6.155457e-003 1.098766e-002 -1.301081e-002 -6.025628e-002 -3.978430e-002 -2.915008e-002 -1.157349e-002
<VARIANCE> 39
 5.470588e+001 2.910227e+001 1.579401e+001 1.093230e+001 4.825496e+001 8.550694e+001 2.296634e+001 1.377722e+001 1.584246e+001 1.926514e+001 1.683720e+001 2.057541e+001 1.279612e+001 1.256896e+000 8.053381e-001 1.146804e+000 1.518392e+000 1.750392e+000 4.818671e+000 1.851086e+000 1.584117e+000 1.447079e+000 9.740798e-001 1.783850e+000 1.331508e+000 2.218865e-001 1.592510e-001 1.596156e-001 2.021690e-001 2.970867e-001 2.623167e-001 4.525799e-001 3.245246e-001 3.654026e-001 2.503776e-001 1.575998e-001 4.120209e-001 2.091875e-001 4.022541e-002
<GCONST> 9.623429e+001
<STATE> 9
<MEAN> 39
 -2.738216e-001 -6.455195e+000 -1.676903e+000 -5.586258e+000 7.594830e+000 4.579254e+000 1.125493e-001 -1.765955e-001 -1.479216e+000 -4.711961e+000 -7.374396e+000 -1.194952e+001 8.744334e+001 -7.819346e-002 -1.297376e-001 6.276087e-002 -1.398211e-001 -3.150125e-001 -2.626774e-001 -1.236044e-001 -2.569919e-001 -6.353294e-002 -1.645306e-001 -1.422701e-001 -2.398899e-001 2.893313e-002 -7.592130e-002 -8.246631e-003 1.016163e-001 2.981590e-003 2.644776e-002 -1.578666e-002 2.063611e-002 -1.425257e-002 -3.526476e-003 2.124017e-002 6.905802e-002 5.776269e-002 -8.139021e-003
<VARIANCE> 39
 4.155055e+000 2.908998e+000 4.181744e+000 9.200194e+000 1.538425e+001 1.206374e+001 9.912252e+000 1.039948e+001 3.282868e+001 2.576093e+001 2.112535e+001 7.522237e+000 5.675218e+000 4.653024e-001 1.788183e-001 9.380538e-001 8.871874e-001 1.089751e+000 1.125283e+000 1.138113e+000 9.712260e-001 1.875285e+000 1.587974e+000 1.882805e+000 7.003186e-001 1.649759e-001 7.992662e-002 3.518349e-002 1.039970e-001 1.934102e-001 2.210126e-001 2.529887e-001 2.648145e-001 2.041644e-001 3.000294e-001 1.966995e-001 2.905197e-001 1.177651e-001 2.202126e-002
<GCONST> 7.282032e+001
<TRANSP> 10
 0.000000e+000 1.000000e+000 0.000000e+000 0.000000e+000 0.000000e+000 0.000000e+000 0.000000e+000 0.000000e+000 0.000000e+000 0.000000e+000
 0.000000e+000 9.555141e-001 4.448590e-002 0.000000e+000 0.000000e+000 0.000000e+000 0.000000e+000 0.000000e+000 0.000000e+000 0.000000e+000
 0.000000e+000 0.000000e+000 9.355216e-001 6.447843e-002 0.000000e+000 0.000000e+000 0.000000e+000 0.000000e+000 0.000000e+000 0.000000e+000
 0.000000e+000 0.000000e+000 0.000000e+000 9.499896e-001 5.001042e-002 0.000000e+000 0.000000e+000 0.000000e+000 0.000000e+000 0.000000e+000
 0.000000e+000 0.000000e+000 0.000000e+000 0.000000e+000 9.793706e-001 2.062940e-002 0.000000e+000 0.000000e+000 0.000000e+000 0.000000e+000
 0.000000e+000 0.000000e+000 0.000000e+000 0.000000e+000 0.000000e+000 9.733628e-001 2.663722e-002 0.000000e+000 0.000000e+000 0.000000e+000
 0.000000e+000 0.000000e+000 0.000000e+000 0.000000e+000 0.000000e+000 0.000000e+000 9.050369e-001 9.496305e-002 0.000000e+000 0.000000e+000
 0.000000e+000 0.000000e+000 0.000000e+000 0.000000e+000 0.000000e+000 0.000000e+000 0.000000e+000 9.554567e-001 4.454332e-002 0.000000e+000
 0.000000e+000 0.000000e+000 0.000000e+000 0.000000e+000 0.000000e+000 0.000000e+000 0.000000e+000 0.000000e+000 9.583674e-001 4.163261e-002
 0.000000e+000 0.000000e+000 0.000000e+000 0.000000e+000 0.000000e+000 0.000000e+000 0.000000e+000 0.000000e+000 0.000000e+000 0.000000e+000
<ENDHMM>
