~o
<STREAMINFO> 1 39
<VECSIZE> 39<NULLD><MFCC_D_A_0><DIAGC>
~h "bbb"
<BEGINHMM>
<NUMSTATES> 10
<STATE> 2
<MEAN> 39
 -5.019566e+000 -2.250626e+000 -5.778331e+000 -4.537166e+000 5.572881e+000 5.296975e+000 -1.098704e+001 -6.272254e+000 2.061566e+000 9.646381e-001 -7.194856e+000 -6.253792e+000 7.070589e+001 3.386065e-002 1.145394e-002 3.810880e-002 4.523454e-001 1.436212e-001 9.361542e-002 -7.563607e-002 -8.215643e-002 2.158720e-001 -2.564887e-001 -3.738659e-001 5.932339e-002 -8.601774e-002 -8.336885e-003 -4.272968e-002 1.496965e-002 4.101072e-002 1.536357e-002 6.244063e-004 1.564244e-002 -4.434505e-002 -7.375560e-002 2.643286e-003 8.371061e-002 2.091614e-002 7.782503e-003
<VARIANCE> 39
 2.203680e+000 4.344078e+000 4.065066e+000 2.711977e+001 1.374305e+001 9.504171e+000 1.511091e+001 1.349280e+001 3.676244e+001 2.879191e+001 1.805955e+001 9.114901e+000 3.943681e+000 6.572212e-002 2.837265e-001 3.533603e-001 7.118295e-001 6.709519e-001 8.949458e-001 2.567529e+000 1.523604e+000 1.995124e+000 2.836812e+000 1.847703e+000 9.759797e-001 7.971022e-002 1.354510e-002 5.078019e-002 5.531456e-002 8.244983e-002 1.235261e-001 1.693488e-001 6.587464e-001 2.059536e-001 3.142368e-001 4.917434e-001 3.137876e-001 1.929684e-001 1.503712e-002
<GCONST> 7.014854e+001
<STATE> 3
<MEAN> 39
 -4.233871e+000 -2.385811e+000 -3.288702e+000 -2.370404e+000 4.207681e+000 5.455053e+000 -1.151445e+001 -5.702581e+000 1.440717e+000 -3.433395e+000 -6.179043e+000 -7.208780e+000 7.074252e+001 1.434971e-001 1.131268e-001 5.943989e-002 -3.929736e-001 -4.141813e-001 -3.622438e-002 1.805616e-001 4.151067e-001 -1.547005e-001 -1.066912e-001 3.679723e-001 3.524867e-002 1.245229e-001 3.247964e-002 6.993915e-002 9.498443e-003 -3.246151e-002 2.399219e-002 -3.986786e-002 -8.990722e-002 -5.793349e-002 8.839404e-002 7.649760e-002 -1.030831e-002 5.124572e-002 7.744948e-003
<VARIANCE> 39
 4.698578e+000 4.560471e+000 4.226311e+000 1.897088e+001 2.290659e+001 7.513681e+000 1.047960e+001 2.995993e+001 2.519445e+001 2.405195e+001 1.736323e+001 6.041755e+000 4.760983e+000 1.369982e-001 2.083972e-001 5.364235e-001 1.045395e+000 7.372333e-001 6.956377e-001 8.893340e-001 3.095636e+000 2.924687e+000 1.927772e+000 2.160473e+000 8.845962e-001 3.605872e-002 2.454210e-002 5.175235e-002 1.166076e-001 2.173380e-001 1.853973e-001 1.440022e-001 1.862540e-001 6.908757e-001 5.205718e-001 2.236324e-001 3.693854e-001 1.621964e-001 7.416933e-003
<GCONST> 7.202202e+001
<STATE> 4
<MEAN> 39
 -8.129154e-001 3.628392e+000 -1.077866e+000 -5.020666e+000 -2.657234e+000 -1.402142e+000 -1.422408e+001 -1.757761e+000 6.738716e+000 1.760284e+000 -2.940621e-001 -2.115869e+000 7.126588e+001 3.467792e-002 2.747305e-001 1.243788e-001 1.439077e-002 -1.049078e-001 -2.278457e-001 4.469593e-002 -1.921626e-001 -4.637625e-002 2.104184e-001 -7.391891e-002 2.902658e-002 -8.019675e-002 -5.464583e-003 -4.925868e-002 -1.504290e-002 2.512702e-002 4.074531e-002 8.642471e-002 5.426506e-002 2.364374e-002 2.122913e-002 -4.524701e-002 4.992530e-003 -6.615075e-002 -2.489512e-003
<VARIANCE> 39
 6.534886e+000 8.548999e+000 3.632515e+000 7.765913e+000 9.258450e+000 6.895307e+000 2.123447e+001 1.805902e+001 9.760847e+000 1.370221e+001 8.893095e+000 5.485402e+000 4.569669e+000 1.321693e-001 4.921620e-001 4.845431e-001 7.471262e-001 6.157762e-001 3.710141e-001 1.379106e+000 1.387070e+000 1.024145e+000 1.943443e+000 6.375581e-001 6.247633e-001 2.303182e-002 2.300273e-002 7.322617e-002 1.099620e-001 1.288064e-001 1.331523e-001 7.857852e-002 2.672282e-001 3.773814e-001 2.378522e-001 3.820881e-001 7.786477e-002 4.931516e-002 3.740156e-003
<GCONST> 5.982211e+001
<STATE> 5
<MEAN> 39
 -1.130577e+001 4.902561e+000 -1.639320e+000 -5.803931e+000 -8.210863e+000 1.113742e+000 7.513327e-002 3.212388e+000 2.503513e+000 -1.119511e-001 -1.048774e+000 -1.820331e+000 6.206106e+001 2.181590e-002 -4.311169e-002 -1.034584e-002 4.234163e-002 5.545160e-002 5.540895e-002 -3.023036e-002 -1.000988e-001 7.696006e-003 -6.731981e-003 1.393256e-002 -1.702579e-002 2.433421e-002 1.939970e-003 3.733826e-003 8.392349e-003 -4.155958e-003 -2.296247e-003 8.239816e-003 -6.083827e-003 6.423797e-003 1.565782e-002 -2.461392e-003 -5.146576e-003 -1.643904e-002 3.869337e-003
<VARIANCE> 39
 2.119937e+000 2.604826e+000 4.134825e+000 4.259665e+000 8.459663e+000 8.718102e+000 8.505043e+000 9.943983e+000 8.150444e+000 1.322394e+001 1.158066e+001 1.112663e+001 1.350272e+000 9.833021e-002 1.821083e-001 3.265491e-001 4.708506e-001 9.163427e-001 1.002236e+000 7.811940e-001 9.854982e-001 8.367396e-001 1.516754e+000 1.316170e+000 1.097245e+000 3.041846e-002 2.042255e-002 3.634313e-002 6.133750e-002 8.711656e-002 1.803225e-001 1.959443e-001 1.679389e-001 1.982015e-001 1.823379e-001 3.025903e-001 2.823826e-001 2.107807e-001 5.277453e-003
<GCONST> 5.555721e+001
<STATE> 6
<MEAN> 39
 -2.935215e+000 4.200082e+000 2.107691e-001 -7.792135e+000 -5.471148e+000 1.550567e+000 -9.021863e+000 -5.932498e+000 4.382536e+000 5.242794e+000 2.427303e+000 -1.669879e+000 7.024814e+001 2.455326e-002 2.096969e-002 -3.171444e-003 -2.074887e-001 -1.553847e-001 -6.096117e-002 3.687732e-002 3.039735e-002 -7.360086e-002 6.978483e-002 1.271483e-001 1.590763e-001 7.609678e-002 -7.824316e-003 3.148308e-003 -1.815069e-002 -3.762799e-003 -1.450128e-002 -4.948887e-002 -6.813644e-003 -3.328544e-003 -3.757554e-002 -6.042056e-003 -4.153215e-003 4.285779e-002 -5.270168e-003
<VARIANCE> 39
 1.535147e+001 3.284007e+000 1.236120e+001 2.612862e+001 1.081035e+001 1.095340e+001 2.270792e+001 3.531939e+001 1.495001e+001 1.798093e+001 1.447255e+001 1.795724e+001 9.704872e+000 1.255366e-001 2.872851e-001 5.367196e-001 5.543306e-001 9.349489e-001 9.849812e-001 1.107261e+000 1.068509e+000 1.424733e+000 1.472812e+000 1.568873e+000 1.368047e+000 3.807423e-002 1.786709e-002 5.350333e-002 7.677738e-002 1.010277e-001 1.695185e-001 1.749413e-001 2.086510e-001 1.777497e-001 2.314017e-001 2.952786e-001 2.898042e-001 2.514994e-001 6.689266e-003
<GCONST> 7.111687e+001
<STATE> 7
<MEAN> 39
 -2.578139e+000 4.858880e+000 -3.008862e+000 -1.045228e+001 -2.753326e+000 1.976488e+000 -5.878281e+000 -5.770587e+000 -1.778979e+000 2.145928e+000 -5.745302e-001 -3.024533e+000 7.053358e+001 1.395804e-001 1.860266e-002 -1.122374e-001 1.307850e-001 3.404253e-001 9.232718e-002 -6.141968e-002 -1.442164e-001 -6.765898e-002 -7.848616e-002 -1.764596e-001 -9.206366e-002 4.361396e-002 -1.987378e-002 3.004428e-003 4.916174e-002 -2.403236e-002 -2.402430e-002 -8.531020e-002 -4.697194e-002 -3.834056e-002 2.594674e-002 -2.635478e-002 7.271003e-003 -4.148415e-002 3.066065e-002
<VARIANCE> 39
 1.482433e+001 2.827623e+000 2.800639e+001 5.163228e+001 1.834513e+001 1.422040e+001 2.907444e+001 6.244172e+001 2.056046e+001 9.843370e+000 7.371912e+000 1.672924e+001 1.152193e+001 8.097551e-001 2.275629e-001 6.651076e-001 5.144852e-001 1.107926e+000 1.313879e+000 2.413872e+000 2.646695e+000 1.084829e+000 9.744703e-001 6.772039e-001 1.219390e+000 2.928128e-001 2.009291e-001 3.263163e-002 1.541160e-001 7.787275e-002 2.866609e-001 2.522604e-001 3.904177e-001 5.438082e-001 2.030312e-001 1.591319e-001 1.333291e-001 2.807091e-001 6.772918e-002
<GCONST> 8.339257e+001
<STATE> 8
<MEAN> 39
 -1.247802e+001 -6.425099e+000 6.876688e+000 -9.481443e+000 4.759085e-002 -9.808451e+000 -5.426526e+000 -6.365614e+000 3.244168e-001 -3.267748e+000 -2.979798e+000 -2.411982e+000 8.175422e+001 -1.052560e+000 -8.747559e-001 1.336753e+000 8.934539e-001 1.495042e-001 -6.715932e-001 3.072568e-001 3.213800e-001 3.190758e-001 -7.539904e-001 -3.024964e-001 2.921443e-002 6.614547e-001 6.397367e-002 1.851995e-002 -4.018191e-002 7.605947e-002 9.150010e-002 4.151736e-001 2.780661e-001 1.733553e-001 1.011631e-001 1.294462e-001 5.568101e-002 1.619487e-001 -1.363460e-001
<VARIANCE> 39
 3.431527e+001 5.178699e+001 5.033348e+001 4.564417e+001 9.806431e+000 2.892080e+001 4.964671e+000 1.341029e+001 1.649460e+001 2.934947e+001 6.594459e+000 1.309549e+001 2.475883e+001 1.240506e+000 1.689257e+000 2.929801e+000 1.539249e+000 1.534229e+000 4.631223e+000 6.030057e-001 7.860245e-001 3.571595e+000 2.773149e+000 2.994592e-001 1.841635e+000 9.784682e-001 2.752358e-001 2.698246e-001 5.866753e-001 2.594483e-001 1.470112e-001 2.935182e-001 2.315204e-001 1.884143e-001 1.025827e+000 7.559197e-001 8.532128e-002 4.017329e-001 7.074599e-002
<GCONST> 9.869769e+001
<STATE> 9
<MEAN> 39
 -8.714272e+000 -5.172130e-001 5.518871e+000 -2.825469e+000 6.706317e-001 4.614326e+000 -1.302877e+000 2.651653e+000 5.996755e+000 -3.340366e-001 -1.659842e+000 -8.828403e-001 7.344635e+001 -1.129659e-001 -1.317740e-001 7.511159e-003 -6.744660e-002 4.162138e-002 1.552099e-001 9.313729e-002 1.675411e-001 1.600366e-001 -2.134468e-003 3.766188e-002 3.925290e-003 1.485868e-001 1.298123e-003 -1.527466e-002 -6.239268e-003 -3.984489e-003 -9.022617e-003 -3.758001e-002 -1.897719e-002 -5.051634e-002 -3.069980e-002 -1.559006e-002 -1.706081e-002 -2.575582e-002 1.765788e-002
<VARIANCE> 39
 3.220689e+001 3.241048e+001 1.760201e+001 9.676315e+000 7.663741e+001 3.985369e+001 2.353016e+001 1.451942e+001 2.062301e+001 1.743680e+001 2.372986e+001 1.554190e+001 6.000314e+001 7.321573e-001 1.007488e+000 6.865383e-001 8.776848e-001 8.772483e-001 2.299374e+000 2.010745e+000 1.015054e+000 1.607227e+000 1.314395e+000 1.496920e+000 1.103972e+000 2.674854e-001 7.219738e-002 1.304323e-001 8.335432e-002 1.768935e-001 1.525026e-001 3.841592e-001 3.365380e-001 1.673579e-001 2.583741e-001 2.250160e-001 2.942583e-001 2.367170e-001 2.315838e-002
<GCONST> 9.017851e+001
<TRANSP> 10
 0.000000e+000 1.000000e+000 0.000000e+000 0.000000e+000 0.000000e+000 0.000000e+000 0.000000e+000 0.000000e+000 0.000000e+000 0.000000e+000
 0.000000e+000 9.260709e-001 7.392917e-002 0.000000e+000 0.000000e+000 0.000000e+000 0.000000e+000 0.000000e+000 0.000000e+000 0.000000e+000
 0.000000e+000 0.000000e+000 9.243349e-001 7.566509e-002 0.000000e+000 0.000000e+000 0.000000e+000 0.000000e+000 0.000000e+000 0.000000e+000
 0.000000e+000 0.000000e+000 0.000000e+000 9.244909e-001 7.550918e-002 0.000000e+000 0.000000e+000 0.000000e+000 0.000000e+000 0.000000e+000
 0.000000e+000 0.000000e+000 0.000000e+000 0.000000e+000 9.813154e-001 1.868464e-002 0.000000e+000 0.000000e+000 0.000000e+000 0.000000e+000
 0.000000e+000 0.000000e+000 0.000000e+000 0.000000e+000 0.000000e+000 9.722450e-001 2.775498e-002 0.000000e+000 0.000000e+000 0.000000e+000
 0.000000e+000 0.000000e+000 0.000000e+000 0.000000e+000 0.000000e+000 0.000000e+000 9.564499e-001 4.355012e-002 0.000000e+000 0.000000e+000
 0.000000e+000 0.000000e+000 0.000000e+000 0.000000e+000 0.000000e+000 0.000000e+000 0.000000e+000 8.749953e-001 1.250047e-001 0.000000e+000
 0.000000e+000 0.000000e+000 0.000000e+000 0.000000e+000 0.000000e+000 0.000000e+000 0.000000e+000 0.000000e+000 9.753104e-001 2.468967e-002
 0.000000e+000 0.000000e+000 0.000000e+000 0.000000e+000 0.000000e+000 0.000000e+000 0.000000e+000 0.000000e+000 0.000000e+000 0.000000e+000
<ENDHMM>
