~o
<STREAMINFO> 1 39
<VECSIZE> 39<NULLD><MFCC_D_A_0><DIAGC>
~h "ccc"
<BEGINHMM>
<NUMSTATES> 10
<STATE> 2
<MEAN> 39
 -1.125676e+001 4.803811e+000 -3.176009e+000 -5.918072e+000 -7.974223e+000 2.130805e-001 -9.416518e-001 2.716548e+000 3.515439e+000 5.673895e-001 -3.994125e-001 -1.151473e+000 6.181971e+001 -4.046281e-002 -5.264710e-002 -1.913398e-002 2.005014e-002 -1.994600e-002 1.249092e-002 1.103954e-001 -9.379410e-003 -2.206933e-002 6.320969e-002 -1.147912e-002 3.112753e-002 -1.991462e-002 -4.115146e-003 -3.291206e-003 -7.403382e-004 -8.192807e-003 3.755325e-003 3.894879e-003 -7.601297e-003 2.141251e-002 2.274662e-002 -7.609855e-003 1.488122e-002 -1.018870e-002 1.375614e-003
<VARIANCE> 39
 1.044972e+000 1.703323e+000 3.784500e+000 5.013844e+000 6.342491e+000 6.402863e+000 8.489820e+000 7.375235e+000 1.199596e+001 7.585532e+000 8.437955e+000 8.186507e+000 2.894596e-001 1.097535e-001 2.403884e-001 3.518136e-001 6.276572e-001 9.419326e-001 9.747666e-001 8.579040e-001 7.975232e-001 1.410207e+000 6.681104e-001 1.112315e+000 8.218451e-001 1.990047e-002 2.456524e-002 5.066760e-002 6.190563e-002 1.267632e-001 2.084474e-001 2.048578e-001 1.750993e-001 1.606982e-001 3.110636e-001 1.222931e-001 2.422824e-001 1.388649e-001 4.027634e-003
<GCONST> 5.043138e+001
<STATE> 3
<MEAN> 39
 -1.132055e+001 4.148302e+000 -4.032479e+000 -5.258589e+000 -5.809932e+000 1.975432e+000 -3.812553e-001 3.690621e+000 5.774170e+000 2.287372e+000 -1.095652e+000 -2.784900e+000 6.186081e+001 9.598382e-002 1.022224e-001 2.192753e-002 1.331744e-002 -5.031702e-003 -1.815892e-002 3.661239e-002 5.932581e-002 -5.942104e-002 -3.603597e-002 1.145958e-001 1.012517e-001 3.102725e-002 2.208702e-002 2.870459e-002 -2.880535e-002 -1.585390e-002 -4.436280e-002 -8.272021e-002 -2.734775e-002 -5.546936e-002 -6.076161e-002 2.389514e-002 6.790051e-002 7.951254e-002 5.170621e-003
<VARIANCE> 39
 9.366508e-001 1.982304e+000 2.083024e+000 6.458280e+000 7.078430e+000 6.697712e+000 6.527368e+000 1.155799e+001 1.215356e+001 1.684896e+001 1.006116e+001 1.088430e+001 1.893074e-001 6.454273e-002 2.369263e-001 1.845860e-001 9.197841e-001 6.823794e-001 1.068558e+000 7.373024e-001 1.417399e+000 1.554589e+000 1.674850e+000 1.139160e+000 1.459038e+000 3.701011e-002 1.452700e-002 6.151301e-002 4.058952e-002 2.258484e-001 1.516494e-001 2.072071e-001 1.355184e-001 2.643947e-001 2.835357e-001 2.898380e-001 2.485330e-001 3.562942e-001 7.422199e-003
<GCONST> 5.504601e+001
<STATE> 4
<MEAN> 39
 -1.082852e+001 5.354739e+000 -2.869435e+000 -7.109778e+000 -9.692436e+000 -8.369413e-001 -1.943178e+000 3.437879e+000 4.562027e+000 1.006071e+000 -6.843936e-001 -2.152033e+000 6.205625e+001 -1.758718e-002 -2.422972e-002 -4.852258e-002 -6.044589e-002 -4.441209e-002 -4.801075e-002 -2.272145e-002 -3.095937e-002 -3.073468e-002 -1.762579e-002 4.098115e-002 -3.926964e-002 -1.043433e-002 -1.466361e-002 -3.601877e-003 8.723730e-003 4.203639e-003 1.743793e-002 1.997194e-002 9.908237e-003 -7.698446e-003 -1.040101e-002 -7.167430e-002 -5.457000e-002 -1.193878e-002 -1.249273e-002
<VARIANCE> 39
 5.131778e-001 1.831155e+000 3.256546e+000 1.146632e+001 1.502646e+001 7.625373e+000 1.359051e+001 8.184050e+000 1.253133e+001 1.574540e+001 1.167672e+001 1.370455e+001 2.865497e-001 6.648753e-002 1.722983e-001 3.988797e-001 5.942392e-001 5.004624e-001 5.292274e-001 1.018948e+000 7.070923e-001 7.805588e-001 9.078929e-001 1.133832e+000 1.780063e+000 2.336010e-002 1.295807e-002 3.003370e-002 7.413909e-002 1.182820e-001 8.466309e-002 1.072883e-001 1.984383e-001 1.040588e-001 1.558572e-001 2.010438e-001 2.486544e-001 3.695722e-001 4.679025e-003
<GCONST> 5.044998e+001
<STATE> 5
<MEAN> 39
 -1.173230e+001 5.135323e+000 -4.196239e+000 -6.451455e+000 -7.878085e+000 6.754150e-001 3.645870e-001 3.714137e+000 2.208016e+000 -1.058209e+000 -1.309346e+000 -2.428167e+000 6.130213e+001 -2.349904e-002 -8.184652e-003 -1.233862e-002 -2.779547e-002 1.312004e-002 5.873850e-002 -6.588880e-003 2.787320e-002 3.421790e-002 1.069215e-004 -2.835763e-002 5.813241e-002 -8.005333e-003 9.877168e-003 -6.139573e-003 1.317423e-002 -5.636316e-003 -1.707923e-002 -1.196455e-003 1.642620e-002 9.799048e-003 6.274326e-003 4.079311e-002 3.860440e-002 4.374108e-004 1.291916e-002
<VARIANCE> 39
 7.451699e-001 3.283008e+000 2.825036e+000 6.392782e+000 8.431708e+000 7.762298e+000 9.853394e+000 1.155418e+001 1.528829e+001 1.218639e+001 9.513291e+000 9.788031e+000 1.716509e-001 9.307072e-002 3.038181e-001 3.245137e-001 3.448712e-001 7.181085e-001 9.749988e-001 1.511846e+000 1.530653e+000 1.248731e+000 1.380917e+000 1.139025e+000 1.049732e+000 2.153750e-002 2.238436e-002 6.665355e-002 7.393723e-002 6.466002e-002 1.562258e-001 1.986322e-001 3.459080e-001 3.570242e-001 2.826619e-001 2.999703e-001 2.162754e-001 2.096838e-001 4.418092e-003
<GCONST> 5.559504e+001
<STATE> 6
<MEAN> 39
 -1.125462e+001 3.849286e+000 -2.258928e+000 -7.450239e+000 -1.093809e+001 2.780598e-001 -9.191881e-001 3.133527e+000 3.270656e+000 -4.553845e-001 -3.711137e-001 -1.001874e+000 6.253246e+001 2.295909e-002 1.059427e-002 8.911587e-002 -1.119137e-002 -1.128216e-002 -1.142832e-001 -6.857135e-002 6.664957e-003 -1.220326e-001 -1.537468e-002 -6.488515e-002 -1.048726e-001 3.186817e-002 -1.506374e-002 -3.193781e-003 5.041098e-003 -3.169751e-003 2.032078e-002 -3.141638e-002 -3.735759e-002 -1.973599e-002 -3.381291e-002 -1.642935e-003 -5.135730e-002 -3.123833e-002 -1.660908e-003
<VARIANCE> 39
 2.645590e+000 2.911608e+000 7.639447e+000 7.388786e+000 1.070095e+001 7.573071e+000 1.328423e+001 1.060381e+001 1.038600e+001 1.388844e+001 9.879698e+000 1.121567e+001 1.025770e+000 2.339646e-001 2.840369e-001 5.427827e-001 1.003667e+000 1.277214e+000 9.085776e-001 1.341735e+000 1.101351e+000 1.752023e+000 1.527353e+000 1.094223e+000 1.110623e+000 1.074589e-001 4.545423e-002 5.375187e-002 1.143050e-001 2.219939e-001 2.331847e-001 1.501377e-001 2.864699e-001 2.199841e-001 3.861201e-001 3.294888e-001 2.137988e-001 1.976444e-001 2.176425e-002
<GCONST> 6.811070e+001
<STATE> 7
<MEAN> 39
 -1.765721e+001 -7.586548e+000 3.340966e+000 -9.837741e+000 5.983161e+000 -5.486678e+000 -4.946853e+000 3.056714e+000 5.003835e+000 3.408623e+000 -2.195734e+000 -5.003673e+000 7.101888e+001 1.152151e-001 -6.244523e-001 5.982113e-001 5.182467e-001 1.337075e+000 8.035650e-001 7.319691e-002 -2.461600e-001 6.128132e-001 2.694331e-001 6.657257e-003 1.782279e-003 6.944407e-001 1.983464e-001 1.671373e-001 6.757323e-002 2.331051e-001 7.786813e-002 2.709800e-001 1.538084e-001 5.933849e-002 7.858235e-002 -1.016716e-001 2.573627e-002 -1.333128e-003 9.014477e-003
<VARIANCE> 39
 1.169258e+001 4.311788e+001 1.150089e+001 5.551334e+000 6.683085e+001 3.328954e+001 9.112562e+000 1.192340e+001 4.238309e+001 1.236228e+001 1.320066e+001 1.264296e+001 2.409542e+001 1.370395e+000 2.135467e+000 1.782250e+000 1.836909e+000 1.936335e+000 2.787035e+000 2.117665e+000 1.349430e+000 4.044695e+000 2.344847e+000 1.389181e+000 1.751425e+000 9.482481e-001 4.070615e-002 1.699378e-001 3.099931e-001 2.151756e-001 2.953853e-001 1.123168e-001 3.891349e-001 3.076703e-001 1.074344e+000 3.783985e-001 2.143659e-001 3.660583e-001 1.324823e-001
<GCONST> 9.841795e+001
<STATE> 8
<MEAN> 39
 -3.689973e+000 -5.841619e+000 2.942871e+000 -2.736905e+000 1.684781e+001 1.387101e+001 -2.779748e+000 -6.142708e-001 1.150842e+001 6.525768e+000 -5.834601e+000 -7.551475e+000 8.305366e+001 -2.030683e-002 -1.596563e-002 3.207396e-002 -1.207569e-001 -1.883238e-001 -8.232278e-002 -6.035060e-002 -2.706000e-001 2.108630e-001 -1.599607e-001 -6.031111e-002 -2.254117e-001 1.964600e-001 -9.060141e-002 -8.266146e-002 -6.367910e-002 -3.937760e-002 -5.829170e-002 -1.040913e-001 -1.038104e-001 -6.198051e-002 7.173194e-003 -2.243162e-002 4.172565e-002 -5.641973e-004 3.764610e-003
<VARIANCE> 39
 6.963645e+000 7.309072e+000 8.531157e+000 1.858916e+001 3.451778e+001 3.097801e+001 1.163757e+001 1.339565e+001 1.825798e+001 2.385155e+001 2.110498e+001 7.017351e+000 1.930164e+001 1.058550e+000 8.116158e-001 7.470934e-001 1.655437e+000 6.812988e-001 2.131209e+000 2.176990e+000 9.587781e-001 1.213237e+000 8.512638e-001 2.158244e+000 7.455454e-001 2.801457e-001 6.363209e-002 1.239118e-001 1.650798e-001 3.905120e-001 1.656223e-001 2.790902e-001 5.920316e-001 1.747657e-001 2.214538e-001 9.493035e-002 3.551617e-001 1.337319e-001 2.887053e-002
<GCONST> 8.375532e+001
<STATE> 9
<MEAN> 39
 -7.138823e+000 8.935003e+000 5.885474e-001 -3.875202e+000 -1.007914e+001 -6.249903e+000 -1.024736e+001 -9.250930e+000 -5.931850e+000 -7.307673e+000 -7.681275e+000 -7.560539e+000 6.463675e+001 -3.204647e-002 -6.094654e-002 -2.976717e-001 -1.588495e-003 2.079991e-001 -1.850027e-001 -3.528397e-001 -5.651542e-001 -1.670481e-001 1.291283e-002 1.736089e-001 1.116492e-001 5.344218e-002 8.249659e-003 1.782175e-002 -1.398314e-002 -5.164404e-002 1.456906e-003 9.999114e-002 9.036998e-002 6.282184e-002 2.760002e-002 4.729350e-002 8.418489e-002 7.924369e-002 -1.131453e-002
<VARIANCE> 39
 2.700444e+000 2.005449e+001 7.203624e+000 3.208809e+000 1.946149e+001 1.599665e+001 8.243779e+000 1.044908e+001 4.296500e+001 1.024084e+001 8.309285e+000 7.704268e+000 1.660166e+001 2.288039e-001 4.292014e-001 5.652552e-001 3.624496e-001 7.937527e-001 1.277615e+000 1.413928e+000 1.527313e+000 6.091049e-001 6.434305e-001 9.766182e-001 9.262967e-001 3.638399e-002 1.259373e-002 4.101798e-002 1.355658e-001 7.161803e-002 1.258419e-001 2.193706e-001 2.091904e-001 2.610632e-001 1.090111e-001 1.115241e-001 2.095859e-001 1.942910e-001 4.272787e-003
<GCONST> 6.282246e+001
<TRANSP> 10
 0.000000e+000 1.000000e+000 0.000000e+000 0.000000e+000 0.000000e+000 0.000000e+000 0.000000e+000 0.000000e+000 0.000000e+000 0.000000e+000
 0.000000e+000 9.694777e-001 3.052228e-002 0.000000e+000 0.000000e+000 0.000000e+000 0.000000e+000 0.000000e+000 0.000000e+000 0.000000e+000
 0.000000e+000 0.000000e+000 9.272084e-001 7.279161e-002 0.000000e+000 0.000000e+000 0.000000e+000 0.000000e+000 0.000000e+000 0.000000e+000
 0.000000e+000 0.000000e+000 0.000000e+000 9.669520e-001 3.304798e-002 0.000000e+000 0.000000e+000 0.000000e+000 0.000000e+000 0.000000e+000
 0.000000e+000 0.000000e+000 0.000000e+000 0.000000e+000 9.723186e-001 2.768132e-002 0.000000e+000 0.000000e+000 0.000000e+000 0.000000e+000
 0.000000e+000 0.000000e+000 0.000000e+000 0.000000e+000 0.000000e+000 9.778330e-001 2.216705e-002 0.000000e+000 0.000000e+000 0.000000e+000
 0.000000e+000 0.000000e+000 0.000000e+000 0.000000e+000 0.000000e+000 0.000000e+000 8.823716e-001 1.176284e-001 0.000000e+000 0.000000e+000
 0.000000e+000 0.000000e+000 0.000000e+000 0.000000e+000 0.000000e+000 0.000000e+000 0.000000e+000 9.555611e-001 4.443888e-002 0.000000e+000
 0.000000e+000 0.000000e+000 0.000000e+000 0.000000e+000 0.000000e+000 0.000000e+000 0.000000e+000 0.000000e+000 9.166567e-001 8.334334e-002
 0.000000e+000 0.000000e+000 0.000000e+000 0.000000e+000 0.000000e+000 0.000000e+000 0.000000e+000 0.000000e+000 0.000000e+000 0.000000e+000
<ENDHMM>
